<?xml version="1.0"?>
<opencv_storage>
<my_nn type_id="opencv-ml-ann-mlp">
  <layer_sizes type_id="opencv-matrix">
    <rows>1</rows>
    <cols>4</cols>
    <dt>i</dt>
    <data>
      640 100 100 11</data></layer_sizes>
  <activation_function>SIGMOID_SYM</activation_function>
  <f_param1>5.0000000000000000e-01</f_param1>
  <f_param2>1.</f_param2>
  <min_val>-9.4999999999999996e-01</min_val>
  <max_val>9.4999999999999996e-01</max_val>
  <min_val1>-9.7999999999999998e-01</min_val1>
  <max_val1>9.7999999999999998e-01</max_val1>
  <training_params>
    <train_method>BACKPROP</train_method>
    <dw_scale>1.0000000000000000e-03</dw_scale>
    <moment_scale>1.0000000149011612e-01</moment_scale>
    <term_criteria><epsilon>1.1920928955078125e-07</epsilon>
      <iterations>1000</iterations></term_criteria></training_params>
  <input_scale>
    1. 0. 2.7357381115636374e+00 -5.9445693859666693e-01
    2.6272837629471946e+00 -6.1008865543663893e-01
    2.4472176731287139e+00 -6.7370311750421064e-01
    2.2902992821308126e+00 -7.7225541419725729e-01
    2.2042108959332021e+00 -8.7414113688858852e-01
    2.1774879976438890e+00 -9.4618514653753871e-01
    2.1756647747273954e+00 -9.9967738512846616e-01
    2.1986183977821177e+00 -9.9821667051332508e-01 1. 0. 1. 0.
    2.6276436646671950e+00 -6.0635441358302633e-01
    2.5371521646059803e+00 -6.2017825155197903e-01
    2.3777651105221804e+00 -6.8364542284194674e-01
    2.2355535416494883e+00 -7.8391904169854720e-01
    2.1573947955032722e+00 -8.9407677708471078e-01
    2.1355562070833947e+00 -9.7984296302798912e-01
    2.1380707262053411e+00 -1.0497134046560457e+00
    2.1613239132424913e+00 -1.0480829943746068e+00 1. 0. 1. 0.
    2.5074911131598387e+00 -6.4052251632795298e-01
    2.4352500687431635e+00 -6.4990445220887583e-01
    2.3093602777111486e+00 -7.0769553353622572e-01
    2.1964249901671518e+00 -8.0003847013705598e-01
    2.1322274469197207e+00 -9.0499405269386002e-01
    2.1144468737184741e+00 -9.9397134213792782e-01
    2.1169663849669775e+00 -1.0673161301240397e+00
    2.1368755554049481e+00 -1.0647493843827813e+00 1. 0. 1. 0.
    2.4195771410282743e+00 -6.7991461096826256e-01
    2.3520069135370574e+00 -6.8922775683678605e-01
    2.2588028335288333e+00 -7.3932930358247018e-01
    2.1737171869246836e+00 -8.2068675537734015e-01
    2.1253629643073886e+00 -9.1169879587672920e-01
    2.1114610470924524e+00 -9.9165178586536384e-01
    2.1149146375126864e+00 -1.0448936633264523e+00
    2.1337859582733301e+00 -1.0283899879494092e+00 1. 0. 1. 0.
    2.3602381337150802e+00 -7.1542513293067822e-01
    2.2888121816420415e+00 -7.2572144748592926e-01
    2.2192501587611844e+00 -7.6884707919427253e-01
    2.1575416391324267e+00 -8.4225823557297852e-01
    2.1221707233648122e+00 -9.2492818318160075e-01
    2.1115729456069849e+00 -9.9154710744207475e-01
    2.1171631420101309e+00 -1.0147712910169513e+00
    2.1432606594409416e+00 -9.7670047191815046e-01 1. 0. 1. 0.
    2.3176829249467548e+00 -7.4182246437408039e-01
    2.2479217161986358e+00 -7.5260758943092054e-01
    2.1959446354181145e+00 -7.9018817961868204e-01
    2.1486588986547219e+00 -8.6036962969913688e-01
    2.1188933426719148e+00 -9.4335506624170717e-01
    2.1103675333244101e+00 -9.9367662745102436e-01
    2.1210601492707597e+00 -9.8959819771919777e-01
    2.1608154374049469e+00 -9.2840063496583736e-01 1. 0. 1. 0.
    2.2866680636214634e+00 -7.6352011560510624e-01
    2.2248706634234368e+00 -7.7057531336056928e-01
    2.1856844282503904e+00 -8.0240273593600298e-01
    2.1467273079754858e+00 -8.7004425912573979e-01
    2.1185180412742288e+00 -9.5131451040422854e-01
    2.1114869621356904e+00 -9.8346240789545092e-01
    2.1270186519807965e+00 -9.6228452853015056e-01
    2.1790926991566253e+00 -8.9246824936854641e-01 1. 0. 1. 0.
    2.2641621918495383e+00 -7.7951892362009623e-01
    2.2107966396400354e+00 -7.8573530113686740e-01
    2.1799896850755771e+00 -8.1646634078836577e-01
    2.1447291629670566e+00 -8.8218063693476734e-01
    2.1196350600788207e+00 -9.5136073163789214e-01
    2.1146170438491962e+00 -9.6130068229689924e-01
    2.1384299159585609e+00 -9.2788644331120163e-01
    2.1980204005940558e+00 -8.6474569033045534e-01 1. 0. 1. 0.
    2.2574087097087605e+00 -7.8826530879815060e-01
    2.2049099854086909e+00 -7.9912355501130528e-01
    2.1739016633353132e+00 -8.3490841093618406e-01
    2.1394004108638329e+00 -8.9743202440494996e-01
    2.1197984366027782e+00 -9.4597552684249553e-01
    2.1204216221117407e+00 -9.3453225131356688e-01
    2.1548685418402749e+00 -8.9299542621130545e-01
    2.2148686550096564e+00 -8.4593992839621857e-01 1. 0. 1. 0.
    2.2640745771526056e+00 -7.8364190733923167e-01
    2.2075028961667846e+00 -8.0491067631725599e-01
    2.1681611870401629e+00 -8.5548841466533354e-01
    2.1335475388264613e+00 -9.1843776699267465e-01
    2.1190249070870908e+00 -9.4921335246666050e-01
    2.1284989921582813e+00 -9.1784086083232108e-01
    2.1723272303808003e+00 -8.7073235663820803e-01
    2.2309469866475635e+00 -8.3477030330462809e-01 1. 0. 1. 0.
    2.2800905196280965e+00 -7.6464845848412710e-01
    2.2185813393295977e+00 -7.9605488750506026e-01
    2.1624934135956022e+00 -8.6827539695886202e-01
    2.1257385397208082e+00 -9.3965311339125013e-01
    2.1140054231704872e+00 -9.6248412742658962e-01
    2.1331043273548418e+00 -9.1866550324115037e-01
    2.1803886972876452e+00 -8.6934716240570475e-01
    2.2380601405680989e+00 -8.3500702865972010e-01 1. 0. 1. 0.
    2.2887434697334630e+00 -7.5029402928625644e-01
    2.2240721244380777e+00 -7.8470645350292290e-01
    2.1555238257259113e+00 -8.6915517439441381e-01
    2.1177332641987010e+00 -9.4999186157485471e-01
    2.1117455588932175e+00 -9.7592390069193524e-01
    2.1342518367929109e+00 -9.3516632678282108e-01
    2.1776587627688779e+00 -8.8605863572424426e-01
    2.2349017770883126e+00 -8.4159487123898646e-01 1. 0. 1. 0.
    2.2811805277044241e+00 -7.5828711229334755e-01
    2.2191798339382429e+00 -7.8649470139491073e-01
    2.1517673907361834e+00 -8.6335110099418910e-01
    2.1144926206376784e+00 -9.4240600457081558e-01
    2.1139532127429064e+00 -9.7354626620478546e-01
    2.1346832945100833e+00 -9.4596822130408498e-01
    2.1714581411182303e+00 -8.9630485420351813e-01
    2.2328530565220057e+00 -8.3709278209119364e-01 1. 0. 1. 0.
    2.2550751950141801e+00 -8.0591332792665415e-01
    2.2011901080313123e+00 -8.2369577418062800e-01
    2.1562426342842631e+00 -8.7042289181660981e-01
    2.1299439671484697e+00 -9.2082944491236984e-01
    2.1333195865684136e+00 -9.4113182020778119e-01
    2.1495129681602685e+00 -9.2407992616449552e-01
    2.1841250438370827e+00 -8.7523667037289166e-01
    2.2603904144513414e+00 -8.0361272023726282e-01 1. 0. 1. 0.
    2.2473647109672674e+00 -8.7875514941623634e-01
    2.2039990880183562e+00 -8.8747979914860164e-01
    2.1838061370655639e+00 -8.9034442741603048e-01
    2.1769342921447699e+00 -8.9198315232719927e-01
    2.1874316398180254e+00 -8.7774621755121796e-01
    2.2095631015850099e+00 -8.5160308626016457e-01
    2.2593845653124944e+00 -7.9980540682893486e-01
    2.3727215166335820e+00 -7.2896876068857164e-01 1. 0. 1. 0.
    2.2640856938765599e+00 -9.2880485803911894e-01
    2.2292818519104873e+00 -9.3272100677315806e-01
    2.2215796461983084e+00 -9.0492586591443747e-01
    2.2328224865327946e+00 -8.6913226940995847e-01
    2.2613182555826303e+00 -8.2536912398701545e-01
    2.2981929414385700e+00 -7.8515973219811364e-01
    2.3701118807301178e+00 -7.3123512824107872e-01
    2.5124648577157216e+00 -6.6984069093279852e-01 1. 0. 1. 0. 1. 0. 1.
    0. 1. 0. 1. 0. 1. 0. 1. 0. 1. 0. 1. 0. 1. 0. 2.6093502215750162e+00
    -7.3981491990469606e-01 2.4841851546308384e+00
    -7.5230179089213833e-01 2.3454960947093246e+00
    -7.7178985597218430e-01 2.2640521303128138e+00
    -7.8506089868460016e-01 2.2180692009995888e+00
    -7.9353022423221264e-01 2.2103626922990314e+00
    -8.0240671587462309e-01 2.2384920609814305e+00
    -8.0872890864624924e-01 2.2903383216104078e+00
    -8.1630111424112828e-01 2.3705221285129427e+00
    -8.1894861315854250e-01 2.4397547528120427e+00
    -8.1932279845964495e-01 2.5162761023309637e+00
    -7.8733528521517493e-01 2.3888025849792744e+00
    -8.2162628523101611e-01 2.2489276291705314e+00
    -8.7450141529621983e-01 2.1735089682418884e+00
    -9.1851941627978229e-01 2.1386516659688426e+00
    -9.4913082272509763e-01 2.1428823396979166e+00
    -9.6849882422122846e-01 2.1728684281113511e+00
    -9.7222917402705300e-01 2.2184728018733879e+00
    -9.6025782352619460e-01 2.2908904572904238e+00
    -9.2673524162592857e-01 2.3609586811299921e+00
    -8.9404313704674643e-01 2.5069695034452146e+00
    -8.0269077044943304e-01 2.3810050720469529e+00
    -8.4967678873002916e-01 2.2395245129836545e+00
    -9.2492689449738930e-01 2.1706417923238828e+00
    -9.9074700341500022e-01 2.1482093106315125e+00
    -1.0436764690876823e+00 2.1616457408517693e+00
    -1.0771223251096327e+00 2.1919066217003871e+00
    -1.0834378169922336e+00 2.2243644528018840e+00
    -1.0515731199861831e+00 2.2802255718411018e+00
    -9.8130480694115285e-01 2.3437923294494465e+00
    -9.1931170838640863e-01 2.5760496912862370e+00
    -7.7465484657108652e-01 2.4474037843839000e+00
    -8.1618585224536500e-01 2.2931621976070491e+00
    -8.8580355955612466e-01 2.2156228986089741e+00
    -9.4549818363877558e-01 2.1879770475163336e+00
    -1.0000749598279950e+00 2.1978157476356337e+00
    -1.0393101423421933e+00 2.2245352811407990e+00
    -1.0558350179166085e+00 2.2538572898173586e+00
    -1.0238831798595962e+00 2.3130953157290146e+00
    -9.4809453227405738e-01 2.3844098143006707e+00
    -8.8063179563776073e-01 2.6913605828897365e+00
    -7.3094615610095159e-01 2.5571017430728435e+00
    -7.6280671578558812e-01 2.3867694400711477e+00
    -8.1867996811028432e-01 2.2986164882516253e+00
    -8.6384542196135794e-01 2.2641488138985260e+00
    -9.0836984967007417e-01 2.2613765323506825e+00
    -9.4277680249396512e-01 2.2767724935464129e+00
    -9.5610928958759389e-01 2.3121152700269967e+00
    -9.2570380661965435e-01 2.4001183229606622e+00
    -8.6094244404881393e-01 2.4917057110791103e+00
    -8.0780944443832237e-01 2.7827669810770215e+00
    -7.0055368377264526e-01 2.6437877974560675e+00
    -7.2297869849018204e-01 2.4695567169824320e+00
    -7.6705485470022983e-01 2.3831916748130482e+00
    -8.0296335931798579e-01 2.3439387767865778e+00
    -8.3931552316845581e-01 2.3277758042450931e+00
    -8.6704439761515506e-01 2.3325848025777165e+00
    -8.7225077397405681e-01 2.3814113241199104e+00
    -8.3891879730633223e-01 2.5037689818661262e+00
    -7.8378053808267667e-01 2.6130326739556868e+00
    -7.4779091132884867e-01 2.8164520304226870e+00
    -6.8504120175205219e-01 2.6830641640408781e+00
    -6.9937388714656723e-01 2.5157605731000672e+00
    -7.3362211280333112e-01 2.4286546261504109e+00
    -7.6438428407773706e-01 2.3863189909991362e+00
    -7.9875579360889437e-01 2.3624850592867008e+00
    -8.2218552468078243e-01 2.3724793024258428e+00
    -8.1926768149758211e-01 2.4387795683646654e+00
    -7.8162196222898395e-01 2.5890351126229567e+00
    -7.3358155518746027e-01 2.7022420249605039e+00
    -7.1112766606112621e-01 2.8257773253365612e+00
    -6.6982174512781745e-01 2.7129914419681431e+00
    -6.7420508882331398e-01 2.5566908572201088e+00
    -6.9782709481989225e-01 2.4632015035587056e+00
    -7.2774182622246264e-01 2.4027817010580410e+00
    -7.6650642909138089e-01 2.3717537038750693e+00
    -7.9005342362163233e-01 2.3946191568520367e+00
    -7.8474190822223688e-01 2.4819862807817104e+00
    -7.4943457304135108e-01 2.6446081624750208e+00
    -7.1178107236670907e-01 2.7491616573406437e+00
    -6.9902989174980246e-01 2.7746005577583666e+00
    -6.6533399371135993e-01 2.6895652048028476e+00
    -6.6251970627969647e-01 2.5582052391796011e+00
    -6.7632782674374892e-01 2.4643461169056629e+00
    -7.0403018904857240e-01 2.3961191564043181e+00
    -7.4328814928105424e-01 2.3691992168940810e+00
    -7.6680514659805554e-01 2.4111699678054608e+00
    -7.6030814073070307e-01 2.5103033086556863e+00
    -7.3368089164378092e-01 2.6545954171650705e+00
    -7.0948097755895034e-01 2.7318172698449015e+00
    -7.0449169383752497e-01 2.6604219575545556e+00
    -6.8165429489583096e-01 2.5910583750647374e+00
    -6.7864448689854018e-01 2.4904693797361763e+00
    -6.8686429130158189e-01 2.4122393617633748e+00
    -7.0945923033081359e-01 2.3549071852075225e+00
    -7.4102038109057966e-01 2.3443838378188935e+00
    -7.5677175293652066e-01 2.4026988583124580e+00
    -7.4682742182466844e-01 2.4944861658008528e+00
    -7.3080687084761498e-01 2.5957935254175766e+00
    -7.2158755902067873e-01 2.6458991562211844e+00
    -7.2161150986111444e-01 2.5108733197057549e+00
    -7.2780817710713486e-01 2.4364560810140423e+00
    -7.3929093326952955e-01 2.3475683057078545e+00
    -7.5647717297541650e-01 2.2981221140871972e+00
    -7.7214908024813855e-01 2.2750770196566594e+00
    -7.8366270862823573e-01 2.2947972320580123e+00
    -7.8064240613880709e-01 2.3609429199555589e+00
    -7.6340902442687308e-01 2.4338002575385973e+00
    -7.5388415156016808e-01 2.5059270848077690e+00
    -7.4902396886292388e-01 2.5503598540722430e+00
    -7.4465523040581272e-01 2.3957055268669589e+00
    -7.9845674443691450e-01 2.3069666019849153e+00
    -8.4143158109149085e-01 2.2218374833021146e+00
    -8.9220388650101046e-01 2.1860472591026343e+00
    -9.1302215332991488e-01 2.1787224867445327e+00
    -9.0298285179343185e-01 2.2060029040190514e+00
    -8.7095408344863401e-01 2.2656802777504677e+00
    -8.3572976863948467e-01 2.3345987484656456e+00
    -8.1308553963110874e-01 2.4171555570669749e+00
    -7.9036099727253706e-01 2.4864987160445531e+00
    -7.6715742385630437e-01 2.3252920217561952e+00
    -8.6291782433424780e-01 2.2372639238434044e+00
    -9.4350646425830409e-01 2.1669617291211871e+00
    -1.0450509211754937e+00 2.1446407772519676e+00
    -1.0897838358207037e+00 2.1335444607846941e+00
    -1.0698544599304194e+00 2.1448514551268691e+00
    -1.0116607624564975e+00 2.1863929770882788e+00
    -9.4579352494571134e-01 2.2577352349864048e+00
    -8.8806753391337379e-01 2.3726918576990461e+00
    -8.2282326418813057e-01 2.4775179847584607e+00
    -7.7322555261675985e-01 2.3118893476269702e+00
    -8.7432194761906157e-01 2.2207748937977940e+00
    -9.6241471114415633e-01 2.1575720626099719e+00
    -1.0827536617687807e+00 2.1412229509973617e+00
    -1.1451593433333160e+00 2.1310707700377005e+00
    -1.1324947872752493e+00 2.1328590100339664e+00
    -1.0702858667431290e+00 2.1653501337724816e+00
    -9.8346264037637643e-01 2.2467031905567425e+00
    -8.9365483971764836e-01 2.4019130859574034e+00
    -7.9706721741036013e-01 2.5458059415110319e+00
    -7.3691407482912774e-01 1. 0. 1. 0. 1. 0. 1. 0. 1. 0. 1. 0. 1. 0. 1.
    0. 1. 0. 1. 0. 1. 0. 2.2768275873612760e+00 -9.6758797149434728e-01
    2.2262748367727982e+00 -1.0271084844298113e+00
    2.2139217432165528e+00 -1.0022754442969743e+00
    2.2131624464865882e+00 -9.2561592450892782e-01
    2.2208423531770878e+00 -8.4910091153299494e-01
    2.2608719054179076e+00 -7.8596848452577750e-01
    2.3642124450638549e+00 -7.1897795382587393e-01
    2.5063978567520433e+00 -6.7220928999523089e-01 1. 0. 1. 0.
    2.2348249664786586e+00 -1.0034417114992749e+00
    2.1919203983764435e+00 -1.0751850943853678e+00
    2.1764416497277455e+00 -1.0527799518858985e+00
    2.1654218161162251e+00 -9.7247951863732995e-01
    2.1672289137047374e+00 -8.8296046336206357e-01
    2.2078233356908270e+00 -8.0350317035409224e-01
    2.3095502758532316e+00 -7.2504619794772496e-01
    2.4415387189805093e+00 -6.7622550788359048e-01 1. 0. 1. 0.
    2.2051339247275830e+00 -1.0130768118502889e+00
    2.1666982819063390e+00 -1.0892211304977095e+00
    2.1483366629862832e+00 -1.0746017204440426e+00
    2.1321557438747338e+00 -9.9841867604614098e-01
    2.1324063604981913e+00 -9.0604055970387842e-01
    2.1747726499860378e+00 -8.1968593002490708e-01
    2.2676772511459227e+00 -7.3916659663331308e-01
    2.3772774233190281e+00 -6.9558811153807143e-01 1. 0. 1. 0.
    2.2018075378216331e+00 -9.9491464035580701e-01
    2.1574032655765674e+00 -1.0698755446588002e+00
    2.1361151239326461e+00 -1.0611334129453560e+00
    2.1213108539764698e+00 -9.9311934924260381e-01
    2.1259013330221324e+00 -9.0726949164684823e-01
    2.1688026907310776e+00 -8.2620999582197741e-01
    2.2491215669497300e+00 -7.5777307675978889e-01
    2.3360026274103203e+00 -7.2635664489297069e-01 1. 0. 1. 0.
    2.2042616494632465e+00 -9.7300928052996094e-01
    2.1491095219837217e+00 -1.0484159304159097e+00
    2.1256692042980094e+00 -1.0432453226648808e+00
    2.1164563775959411e+00 -9.7784401645802954e-01
    2.1281540034373969e+00 -8.9502078058347456e-01
    2.1699337067385351e+00 -8.2641784505017080e-01
    2.2349601841706455e+00 -7.7797905678153823e-01
    2.3023811626330706e+00 -7.6281379375399749e-01 1. 0. 1. 0.
    2.2028123895060707e+00 -9.5993190569999298e-01
    2.1396152826425063e+00 -1.0390835595768813e+00
    2.1166241736054672e+00 -1.0317350172788227e+00
    2.1162371952807542e+00 -9.6108669240104772e-01
    2.1380360736149306e+00 -8.7555626064921510e-01
    2.1768995697074796e+00 -8.2329104330409530e-01
    2.2264429180790763e+00 -7.9556934439791238e-01
    2.2817556935626286e+00 -7.9576906535026004e-01 1. 0. 1. 0.
    2.1950863852766753e+00 -9.5001801043194689e-01
    2.1310447479218162e+00 -1.0311239802635239e+00
    2.1132696605019352e+00 -1.0203138765897219e+00
    2.1230407631500050e+00 -9.4481444472167608e-01
    2.1508373471012026e+00 -8.6221625787850587e-01
    2.1811693217639863e+00 -8.2819031038852620e-01
    2.2143309737021752e+00 -8.1762840239328938e-01
    2.2636450788456162e+00 -8.2378082078608461e-01 1. 0. 1. 0.
    2.1890731865449773e+00 -9.4341906136417486e-01
    2.1287316771732323e+00 -1.0163214919346193e+00
    2.1173462013332944e+00 -9.9823501117248359e-01
    2.1345318536164042e+00 -9.2403645299924297e-01
    2.1598020347843763e+00 -8.5826425327959421e-01
    2.1746289500090574e+00 -8.4637043252891242e-01
    2.1981624603169481e+00 -8.4635396889767001e-01
    2.2536499105066481e+00 -8.4519269744733960e-01 1. 0. 1. 0.
    2.1836396708265533e+00 -9.3992733613327550e-01
    2.1300584783196932e+00 -9.9665332345467395e-01
    2.1268796070921376e+00 -9.6641588213653018e-01
    2.1466642021695441e+00 -9.0183606766928137e-01
    2.1611294491166002e+00 -8.6201654466303856e-01
    2.1618973077751291e+00 -8.7180504314170637e-01
    2.1861381633421031e+00 -8.7650437597411335e-01
    2.2525432592464418e+00 -8.5803232252379069e-01 1. 0. 1. 0.
    2.1759988777438948e+00 -9.5192128670760612e-01
    2.1337234211449840e+00 -9.8579128026708085e-01
    2.1408132554315635e+00 -9.3617898835844426e-01
    2.1593347715868445e+00 -8.7879959789367856e-01
    2.1636770930529612e+00 -8.5951118663080217e-01
    2.1579858794174238e+00 -8.8594922765249084e-01
    2.1912142199370686e+00 -8.8909571072439797e-01
    2.2691040675176284e+00 -8.5765165398047716e-01 1. 0. 1. 0.
    2.1612059138492135e+00 -9.8237684976756123e-01
    2.1319671301725096e+00 -9.9521969072260597e-01
    2.1455830726633396e+00 -9.2249542660566841e-01
    2.1666246093398138e+00 -8.6197296902755050e-01
    2.1664514878521519e+00 -8.5045099125794221e-01
    2.1667393148445631e+00 -8.7878271394613827e-01
    2.2096547276516207e+00 -8.7793325626668894e-01
    2.2978678292448622e+00 -8.4377393617514906e-01 1. 0. 1. 0.
    2.1485773705265041e+00 -1.0137347306993578e+00
    2.1267157430014754e+00 -1.0150883069351464e+00
    2.1394063159184844e+00 -9.3100980801533906e-01
    2.1640527671218845e+00 -8.6062211257069132e-01
    2.1735254590608242e+00 -8.4005422565641574e-01
    2.1880441548965432e+00 -8.5431320808179945e-01
    2.2406908071247709e+00 -8.4904007818265792e-01
    2.3272867461029927e+00 -8.2513691405086831e-01 1. 0. 1. 0.
    2.1440803328428033e+00 -1.0048098172254094e+00
    2.1239800652537610e+00 -1.0163527395426049e+00
    2.1295802510294775e+00 -9.4458870452643839e-01
    2.1534271944344421e+00 -8.7356638909284545e-01
    2.1782410160168655e+00 -8.3802043985239583e-01
    2.2105082719331826e+00 -8.3366761786872501e-01
    2.2676437979528026e+00 -8.2727549119228505e-01
    2.3432924033887628e+00 -8.1834795153139495e-01 1. 0. 1. 0.
    2.1611427753430270e+00 -9.3233563143256315e-01
    2.1303009620524120e+00 -9.6260927491213211e-01
    2.1310279961494003e+00 -9.3224826107201664e-01
    2.1514246159510129e+00 -8.8401389470699732e-01
    2.1867714686985247e+00 -8.4733672186941189e-01
    2.2271773785124847e+00 -8.3470152870722369e-01
    2.2791389341020811e+00 -8.3289738187564610e-01
    2.3440406524595128e+00 -8.3699840841956652e-01 1. 0. 1. 0.
    2.2411746971964157e+00 -8.1316277776411361e-01
    2.1838711090483529e+00 -8.5719429985170204e-01
    2.1716660994271018e+00 -8.7445111608391957e-01
    2.1869803956687099e+00 -8.7049004096132176e-01
    2.2185458519952976e+00 -8.6194418177433096e-01
    2.2510814834946200e+00 -8.6001950623909251e-01
    2.2908952528775179e+00 -8.6891849134472898e-01
    2.3586558958764798e+00 -8.7661300787239560e-01 1. 0. 1. 0.
    2.3435535148900186e+00 -7.3323370134326182e-01
    2.2612055924579471e+00 -7.7695696304828288e-01
    2.2305791518564697e+00 -8.1765338673293242e-01
    2.2350274571848603e+00 -8.4347603328986021e-01
    2.2594068011777417e+00 -8.6439806496435823e-01
    2.2838223264632620e+00 -8.8109651754680529e-01
    2.3200076164037280e+00 -9.0088712760155409e-01
    2.3870959297039276e+00 -9.0526986183056812e-01 1. 0. 1. 0. 1. 0. 1.
    0. 1. 0. 1. 0. 1. 0. 1. 0. 1. 0. 1. 0. 1. 0. 2.6540049634164000e+00
    -6.9760273193696809e-01 2.4750356279501484e+00
    -7.4944212555443679e-01 2.2910165615122562e+00
    -8.3467311628443253e-01 2.1963917713637962e+00
    -9.1230884649103161e-01 2.1513759638892127e+00
    -9.7304332350228528e-01 2.1334160190134361e+00
    -9.9024407034842987e-01 2.1456321219530894e+00
    -9.5065450963208309e-01 2.2026498314677418e+00
    -8.7055272044275589e-01 2.3427545385943640e+00
    -7.7573827168713050e-01 2.4856153031661274e+00
    -7.1520792290285118e-01 2.7374229978500075e+00
    -6.6504963856111421e-01 2.5783086968762619e+00
    -6.9496418387883818e-01 2.3961662341698333e+00
    -7.4762656530500382e-01 2.2878032525763325e+00
    -7.9113991209875334e-01 2.2275844697007634e+00
    -8.1766602460631643e-01 2.2109103741410161e+00
    -8.1071753772709554e-01 2.2506026782180197e+00
    -7.7171541059516824e-01 2.3437070725750777e+00
    -7.2105095545912012e-01 2.5070700891572377e+00
    -6.7218870298533140e-01 2.6402544909077483e+00
    -6.4645659115022169e-01 2.8134643608442946e+00
    -6.5206821137242321e-01 2.6927337410169736e+00
    -6.6816176338168476e-01 2.5186714132403121e+00
    -7.0238830650623740e-01 2.3999790176958204e+00
    -7.2547663072300117e-01 2.3402187851835241e+00
    -7.2751072037752396e-01 2.3548155325850875e+00
    -6.9879759803979868e-01 2.4505687218986192e+00
    -6.5270917604529688e-01 2.5797970578782423e+00
    -6.1834435348212169e-01 2.7242358608854453e+00
    -6.0386136347045916e-01 2.8077587227148175e+00
    -6.0660668501817028e-01 2.8413751278551809e+00
    -6.6888339599143187e-01 2.7356909266316429e+00
    -6.8378623836732899e-01 2.5473723922293510e+00
    -7.1575871862567875e-01 2.4206826508202819e+00
    -7.3642875370701011e-01 2.3671756192254687e+00
    -7.2762600922947474e-01 2.4102983716364035e+00
    -6.8670655776278811e-01 2.5369382495240345e+00
    -6.3349500609627929e-01 2.6675609694836839e+00
    -6.0513823223548502e-01 2.7673379511911622e+00
    -6.0531265279324542e-01 2.8147850045696425e+00
    -6.1983790907861480e-01 2.8516382802011253e+00
    -6.9734586294363698e-01 2.7450696231845324e+00
    -7.1493063181383687e-01 2.5441692117761820e+00
    -7.4852206691061440e-01 2.4155256570082519e+00
    -7.6870522716410195e-01 2.3679611839499595e+00
    -7.5675146893003209e-01 2.4125369646591790e+00
    -7.1599420673229675e-01 2.5205421261172667e+00
    -6.6983613274033738e-01 2.6163367455570063e+00
    -6.4936291262484347e-01 2.7006492763761436e+00
    -6.5204945228601896e-01 2.7467661169332485e+00
    -6.6298132067532756e-01 2.8282327965342584e+00
    -7.1622462289863265e-01 2.7125885234998202e+00
    -7.3730526927288531e-01 2.5249319877958527e+00
    -7.7133476810333124e-01 2.4229838458809314e+00
    -7.8706061557255236e-01 2.3930449044162976e+00
    -7.7331165319184270e-01 2.4276762737785109e+00
    -7.4018591616387575e-01 2.4904498864377373e+00
    -7.1176394447596447e-01 2.5407364760687350e+00
    -7.0440151840020870e-01 2.6191550845282321e+00
    -7.0787699342583887e-01 2.6708115333674334e+00
    -7.0866921506348290e-01 2.7316837474376721e+00
    -7.3714739631623771e-01 2.6152237448460416e+00
    -7.6489827673576660e-01 2.4686624347289139e+00
    -8.0002696135615259e-01 2.4106881967143159e+00
    -8.0734217446540590e-01 2.4073923595726487e+00
    -7.8839508865761487e-01 2.4297773681076085e+00
    -7.6301094390167645e-01 2.4543885624515482e+00
    -7.5005926558507008e-01 2.4860005605148729e+00
    -7.5127395433828104e-01 2.5722307539267710e+00
    -7.4846829622753142e-01 2.6307814685211657e+00
    -7.3835550269615047e-01 2.6185717472959622e+00
    -7.6760136333930495e-01 2.5027923700511447e+00
    -8.0697694307412893e-01 2.3858109435913968e+00
    -8.5011134916667253e-01 2.3577525457832551e+00
    -8.5071264682372882e-01 2.3705371214394626e+00
    -8.2408910030234028e-01 2.3890794950723677e+00
    -7.9949608577835374e-01 2.4045998322543425e+00
    -7.8873977911648330e-01 2.4493411337537920e+00
    -7.8405339318805911e-01 2.5556633384507781e+00
    -7.6620257834183059e-01 2.6306007001898060e+00
    -7.4689561910478619e-01 2.5246834479822007e+00
    -8.0688627945234437e-01 2.4126553698094337e+00
    -8.5733561861550656e-01 2.3115320196758704e+00
    -9.1187638114022840e-01 2.2820759045183574e+00
    -9.1347519999241888e-01 2.2885476420373911e+00
    -8.8269846041680544e-01 2.3099770720205757e+00
    -8.5258348521263083e-01 2.3486025025150399e+00
    -8.3001119076567231e-01 2.4292844036831731e+00
    -8.0494377926079630e-01 2.5651351558604305e+00
    -7.6628382347226931e-01 2.6569263067248858e+00
    -7.4134399841296383e-01 2.4675842324517432e+00
    -8.2873826933997929e-01 2.3670870534293957e+00
    -8.8314567897871521e-01 2.2759337707178231e+00
    -9.4508610609390242e-01 2.2376930756454305e+00
    -9.5719632914120323e-01 2.2276490051986833e+00
    -9.3686296753224407e-01 2.2469825452428256e+00
    -9.0752215355893484e-01 2.3102756269116131e+00
    -8.6904794772332616e-01 2.4232086533187482e+00
    -8.1773710372127228e-01 2.5847455161371840e+00
    -7.6015181753263328e-01 2.6837222557804163e+00
    -7.3280515073758346e-01 2.4449441928626316e+00
    -8.1795687948626905e-01 2.3582191184827153e+00
    -8.5811294417831496e-01 2.2704319571133973e+00
    -9.0523846916660400e-01 2.2224484034238210e+00
    -9.2851373248748659e-01 2.2031469270289215e+00
    -9.3335427848613817e-01 2.2224187353531586e+00
    -9.1813576960375065e-01 2.3011037527267977e+00
    -8.7397062401488412e-01 2.4346789260507444e+00
    -8.0721846616686754e-01 2.6055987547368518e+00
    -7.4540337476427665e-01 2.6965573520552066e+00
    -7.2253863957721820e-01 2.4887004949807334e+00
    -7.6579561063145885e-01 2.4154000446933535e+00
    -7.7835583474519787e-01 2.3316095118283164e+00
    -7.9504961080848890e-01 2.2714523765952457e+00
    -8.1490323651529228e-01 2.2348936120334306e+00
    -8.4111305562370042e-01 2.2486203348330398e+00
    -8.5071300018339135e-01 2.3312329490733092e+00
    -8.2347190819541882e-01 2.4693320199653734e+00
    -7.6800089961373597e-01 2.6229833711841435e+00
    -7.2282830691063127e-01 2.6988920563111392e+00
    -7.1118259206440659e-01 2.5849456368807613e+00
    -7.0603681267814578e-01 2.5172771674248424e+00
    -6.9796643469799202e-01 2.4357064767485381e+00
    -6.9118715759712135e-01 2.3677103388612744e+00
    -7.0028622277301922e-01 2.3179743212236272e+00
    -7.2772032541843490e-01 2.3195210315280939e+00
    -7.5017316276033441e-01 2.3925967566603124e+00
    -7.4569685365778848e-01 2.5089603538406755e+00
    -7.2094733281526457e-01 2.6337459217756685e+00
    -7.0369775353160191e-01 2.7025995332560635e+00
    -7.0517656444830046e-01 2.6398510742616064e+00
    -6.8498599036290209e-01 2.5548535894437054e+00
    -6.7827116308495317e-01 2.4538199175919639e+00
    -6.7200348958727052e-01 2.3860771791598743e+00
    -6.7667743476587305e-01 2.3490957757381068e+00
    -6.9492540570713546e-01 2.3530075490628346e+00
    -7.1506400348304244e-01 2.4104059132560587e+00
    -7.2182138503111648e-01 2.4972502885066490e+00
    -7.1811683300769558e-01 2.6149837697132483e+00
    -7.1624083777066838e-01 2.6932597912643503e+00
    -7.2145207695868896e-01 1. 0. 1. 0. 1. 0. 1. 0. 1. 0. 1. 0. 1. 0. 1.
    0. 1. 0. 1. 0.</input_scale>
  <output_scale>
    5.2631578947368418e-01 4.9999999999999994e-01 5.2631578947368418e-01
    4.9999999999999994e-01 5.2631578947368418e-01 4.9999999999999994e-01
    5.2631578947368418e-01 4.9999999999999994e-01 5.2631578947368418e-01
    4.9999999999999994e-01 5.2631578947368418e-01 4.9999999999999994e-01
    5.2631578947368418e-01 4.9999999999999994e-01 5.2631578947368418e-01
    4.9999999999999994e-01 5.2631578947368418e-01 4.9999999999999994e-01
    5.2631578947368418e-01 4.9999999999999994e-01 5.2631578947368418e-01
    4.9999999999999994e-01</output_scale>
  <inv_output_scale>
    1.8999999999999999e+00 -9.4999999999999996e-01
    1.8999999999999999e+00 -9.4999999999999996e-01
    1.8999999999999999e+00 -9.4999999999999996e-01
    1.8999999999999999e+00 -9.4999999999999996e-01
    1.8999999999999999e+00 -9.4999999999999996e-01
    1.8999999999999999e+00 -9.4999999999999996e-01
    1.8999999999999999e+00 -9.4999999999999996e-01
    1.8999999999999999e+00 -9.4999999999999996e-01
    1.8999999999999999e+00 -9.4999999999999996e-01
    1.8999999999999999e+00 -9.4999999999999996e-01
    1.8999999999999999e+00 -9.4999999999999996e-01</inv_output_scale>
  <weights>
    <_>
      -2.9374444379918177e-03 -2.6769055257860988e-04
      2.2390692052149910e-03 -1.6647843898284988e-03
      -9.7687448009856396e-04 1.4916536832400415e-03
      9.9558586356735868e-04 -1.4857103193858170e-03
      1.2761382129654469e-03 1.9092833326242703e-03
      -3.0808282304366258e-03 -3.1424954992175285e-06
      -1.7274664660136957e-03 -4.6523243138617639e-04
      -2.9284688666085549e-03 -3.0686097373850498e-04
      -1.0818695221591252e-03 -3.7761142740072833e-04
      -1.5253344843251027e-03 1.8019492570135413e-03
      2.9060488126446326e-03 -2.3298897126490651e-03
      2.6087756964920591e-03 3.0982344429437798e-03
      -1.0277730809274007e-03 9.7980395829463810e-04
      2.1642658376379142e-03 -2.6815974869247449e-03
      3.0442505266123228e-03 -2.4148724514671490e-03
      1.1852718983549687e-03 -2.4735982236373500e-03
      -5.3382329710212166e-04 1.0263795913237619e-03
      -2.5839266480804156e-03 2.0071646606579152e-03
      -2.7979404555183943e-03 2.2501763077311093e-03
      1.7909351014051911e-03 9.0235815575715915e-04
      -3.0054955144383274e-03 9.7807727732304966e-04
      -3.0024656337293192e-03 -1.6884438202939432e-03
      -2.7535313306603065e-03 -1.8169997937710377e-03
      1.5550599780553070e-03 -3.0420228719211266e-03
      -2.3100439855112923e-03 -2.2533205586200171e-03
      -1.4146929101014646e-03 -2.1888726172122103e-03
      1.8063088016782726e-03 1.8088592162589833e-03
      -2.8268302957960775e-03 -3.1564263722190784e-03
      8.6727909032451955e-04 -2.9277331522978962e-03
      9.0038254711702315e-04 -8.5026737182382405e-04
      2.5565422499766116e-03 7.8169814245330615e-04
      -4.4150783406066373e-05 1.8698826464714192e-04
      9.5494331465605965e-04 -1.1965683165071864e-03
      -2.8916702099271931e-03 -3.8054748901472668e-05
      2.5516066197089934e-03 -2.1912901104686531e-03
      -7.8044198198055437e-04 2.3612155785566434e-03
      1.9030609205418797e-03 1.3537105880946107e-03
      -1.6756413142645663e-03 -2.4611030794455201e-03
      1.3955055265256036e-05 -9.5890545732852468e-04
      1.9363157591455278e-03 2.9347348823033272e-03
      1.7696922947950859e-03 -7.6638865869432088e-04
      6.8090565106592870e-04 -1.4089304925579502e-03
      -1.9669535511153348e-04 -1.4756587874072702e-03
      1.6598308455722084e-05 -2.1424967929118432e-03
      2.4428815045735935e-03 -2.6391326926272851e-03
      1.9549762970783205e-03 5.2642223615275438e-04
      6.8799208220712946e-04 2.5745852810513167e-03
      2.0359502397524218e-03 1.3392726715415185e-04
      2.9202975503320083e-03 5.3075278374716916e-04
      -1.4108127424823894e-03 -1.8832762923863659e-03
      -8.8414517390984459e-01 1.2135506283830168e-01
      -8.9123162181161342e-02 2.3091491305894754e-01
      -5.9405197162471411e-02 2.0444852777374556e-01
      2.5857896688787668e-01 -7.5458153831114774e-02
      -1.9745825960786281e-01 -8.4210050716418364e-02
      -8.2230070145008480e-02 -1.8648427202080492e-01
      -2.5088606485931458e-01 2.2681672313151999e-01
      -5.3615403929865899e-02 -5.6856432089323380e-02
      1.2314116406344661e-01 4.9557344300492828e-02
      -1.8125837943888903e-02 8.0015194669327841e-02
      -1.5572551126214709e-02 -1.0310923913092183e-01
      -5.0478627899923814e-02 3.3986440845290405e-01
      1.7604079019482113e-01 1.2815017863356357e-01
      4.8144186631421178e-02 3.7388128019923170e-03
      4.7846219467805332e-02 -1.7562429223827730e-01
      1.4756533851156192e-01 5.7942352516159458e-02
      5.0147745907067454e-01 2.4140738870982265e-01
      -2.3153336661788104e-01 8.4707804581025350e-02
      8.5962558089346469e-02 2.6545623141270352e-01
      6.0381516606708319e-02 -2.4126554229533165e-01
      -7.1082087507750802e-02 9.8140093581750007e-02
      9.0032581554897032e-02 2.4258856235647416e-01
      1.0610987746696818e-01 1.5388115718672263e-01
      -3.6967580481386064e-01 6.2028545434852631e-02
      7.0897095347177419e-02 -1.0313749324171936e-01
      2.1340230071052174e-01 3.7012837953052358e-01
      1.9523333485910694e-02 -6.4740837183673711e-02
      -3.2032874810556125e-02 -3.0036238967942150e-02
      -8.2216002006921834e-02 -1.0418115766164819e-01
      -9.3354153327559336e-02 3.2355502965943195e-01
      2.3946179937089981e-01 1.5884355263604313e-01
      1.9299380632696694e-01 1.9757135071863319e-02
      -1.0836309714568107e-02 3.6606049925804650e-02
      -1.7305937513424499e-01 1.5214222818025461e-01
      -4.0321696579411224e-02 1.8662216625810451e-02
      9.0996886142281908e-02 1.9837072836950412e-02
      1.9946167225286393e-01 -1.2768503995873145e-02
      -2.5332098839328598e-01 -1.4008567189575935e-01
      -8.9431670457244844e-02 -7.1662762727370863e-02
      4.2917084702360523e-03 1.6071686146646472e-01
      4.9655239857884961e-02 -7.1552759310464870e-02
      -1.4007519720670894e-01 1.0887788166638673e-01
      5.0401514263111291e-01 2.7818547854893107e-02
      2.0084181604568629e-01 2.8477059507557398e-02
      -2.6642701943181333e-02 2.7681926565869908e-01
      8.1315186750746532e-02 -3.7105072089793273e-02
      2.8477728513995804e-01 -3.5717221096522450e-01
      -6.3592169805275489e-02 7.3464876083455380e-02
      -5.1127776136340640e-02 -1.7206627167217156e-01
      2.0921252277846032e-02 -1.9911554939852991e-01
      -7.3983680315295042e-01 2.0807085510073800e-03
      -1.2485332684548876e-01 9.6804334628253275e-02
      7.6180410761730114e-02 1.7634148758159934e-01
      3.9509544311090342e-02 8.0292811908837178e-02
      5.9013082525697133e-02 -2.9180143613278603e-01
      3.9786778000982299e-02 -5.7684469673717077e-02
      -2.4205795678310582e-01 1.5757399860314736e-01
      -9.0247984257659952e-02 -5.8849597762108637e-02
      1.1871652839942844e-02 -1.1996423307215561e-02
      1.1962188290136121e-01 1.2542366259154589e-02
      -1.3951060348464484e-01 -8.2524467441756968e-02
      -2.3978318569314906e-03 1.6816529259505247e-01
      -5.1336121026097761e-02 1.2309242459585008e-01
      4.7859861393147303e-02 1.4445959379403162e-01
      2.0345971517864947e-01 -2.1888341376742986e-02
      -1.8243438222824475e-02 1.5447510151959140e-01
      2.8099233521883121e-01 -4.7855572725106774e-03
      -1.5513757419147925e-01 5.0521246157284330e-02
      1.3180325297764695e-01 1.1846870425352270e-01
      -5.9658806047619632e-02 -4.0708500776562372e-02
      5.9934755419009063e-02 6.9807711280800128e-02
      -6.6200219121438364e-02 1.0341505512931501e-01
      -1.0135811971301847e-01 4.8663079373568389e-02
      -1.5276471426311175e-01 -3.3974530138226947e-02
      -1.3574034722311026e-01 -1.3223468450978496e-01
      9.2794236774863287e-02 -1.7589224762410127e-01
      8.0118963069276627e-02 -5.8169966777414867e-03
      -2.5504391890236747e-02 2.2500719245063812e-02
      4.8832750123142164e-02 -2.2480980912230170e-01
      -1.3825624603046699e-01 2.4603943066350153e-01
      2.8792188694591098e-01 1.6041411730598754e-01
      1.1521874672500330e-01 -2.1679451345277795e-02
      -7.5818479285989809e-02 1.1669743576625165e-01
      -2.3250657943529654e-01 -2.1618533052597744e-01
      3.2430237332864577e-02 -1.1381871738319914e-01
      1.3311134698621929e-01 5.1809230793965259e-02
      3.2474374480845691e-01 8.3098893382651154e-02
      -1.6501848259783999e-01 2.8183608195112141e-02
      -2.4282985642532819e-02 -1.8506904054616022e-01
      -1.5738994017411728e-01 -2.0042908210902623e-02
      6.7697787020023756e-02 7.3824073453189658e-03
      -2.2546571818358629e-02 1.5899319320585290e-01
      5.8526739459768795e-01 -5.2218307489230675e-02
      -1.2300547456760288e-01 -4.4390646085782318e-02
      2.3005050099621249e-01 2.7767204741930812e-01
      2.1828778879659771e-01 -2.0890046519837549e-01
      2.6723358220418475e-01 -2.9245291326821621e-01
      5.1310365693325477e-02 5.6390319662697934e-03
      -9.3568215792996443e-02 -6.8065554502487746e-02
      9.1459135878715389e-02 -3.6361775423951297e-02
      -4.2144186283645224e-01 -7.9326499452825106e-02
      1.3320912388131970e-01 1.5767531623245248e-01
      9.3964060721305781e-02 8.6030197590852731e-02
      -1.5440497696322086e-02 1.1818146522180911e-02
      2.3005997741272058e-01 -2.6571355778742706e-01
      -1.8542695309255994e-01 -1.2548151556987650e-01
      -1.7305307981094925e-01 2.2778341597480181e-01
      -4.3185121634790674e-01 1.2139308409167821e-01
      1.0127084086930545e-01 1.2364811691007491e-02
      7.7526755933230523e-02 -3.1286475561682722e-02
      -7.0088600386475103e-02 -1.4943497190717986e-01
      1.2707806533666594e-01 1.6108581579650641e-01
      -1.4297135851255662e-02 -2.4653371072671841e-02
      -1.5568196278340378e-02 -7.7016034475601375e-02
      4.6911866358258413e-02 7.3205338929985394e-03
      -6.6935133610517228e-02 1.9138193755132105e-01
      2.2264590515222241e-01 -8.5069214199615037e-02
      7.2036159718380330e-02 1.1131415379867747e-01
      6.5181975030920172e-02 -1.4699958859328310e-01
      -3.7949030972234975e-02 9.1124394420795549e-02
      2.8951278145338638e-01 -2.4157350739267180e-02
      -1.9128583978478197e-01 1.1104029151094755e-01
      -1.7907819406034040e-01 -3.7227645493508654e-01
      -4.0620115177383891e-02 6.6867773220502733e-02
      -2.2479359620470412e-02 -2.4729238300200246e-01
      3.0948387330343278e-02 -1.2169461206967878e-01
      1.3385171160912396e-01 7.9954805185088698e-02
      -4.2228702905063406e-02 4.7521466167535303e-02
      -1.2285463757867580e-01 -3.7762009505362232e-01
      -1.8186665428655235e-01 -7.3420695144899017e-03
      1.3426096035280025e-01 -6.5673693387363993e-02
      -2.0535882324019972e-02 1.1086306258699596e-01
      -1.6738461859507078e-01 2.1277254220133163e-01
      -2.2683704919327438e-01 -1.7781829778528026e-02
      8.9508321891137319e-02 -8.2146285624800489e-02
      3.0569056693445246e-02 -9.4769370338278328e-02
      2.7195867138881813e-01 -7.2430410630326359e-03
      -2.1760223306400564e-01 -2.5845515375145896e-02
      -1.8773437092162953e-01 -1.4143800978174870e-01
      -6.9313410536190681e-02 -5.2540862367411331e-02
      -8.9440183553887428e-02 -8.2027145412905539e-02
      1.0026140158007175e-01 -1.0655207274761024e-01
      2.2613278859288860e-01 -1.2302504809488733e-01
      -9.5496131827136690e-02 2.1323005103245238e-02
      3.0274084190248568e-01 1.6647954935395801e-01
      -8.9443329429386986e-02 -2.5937758206301126e-01
      3.3558374018804751e-02 -1.0129360133929227e-01
      7.4551290492540764e-02 -7.5450599625657101e-03
      -4.5454437988206961e-02 1.7984662214576064e-01
      3.2867204762121301e-02 4.9031713310482925e-03
      8.0918072201523283e-01 -5.2113601091095384e-02
      5.1400479995362958e-03 3.9395001066039000e-02
      -8.2614761514255650e-03 1.7033895371935764e-02
      8.5558642297313501e-03 -1.3670617021497625e-01
      2.4422455667997875e-01 -1.5861234303559998e-01
      -5.4227103143801601e-02 1.9252383063174000e-01
      -1.8010503083174675e-01 4.4014268850041685e-02
      -2.5062793004253792e-01 2.7428577987746677e-01
      8.8345112147224777e-02 1.4103793475540331e-02
      -1.0426441211127291e-04 -4.5339857045804052e-02
      -1.4105251350314635e-01 8.4171187086039365e-02
      5.4224044751903303e-02 1.9173004313358066e-01
      3.4783089182139505e-03 2.6136474705135575e-02
      -1.2615101205190490e-02 -2.3343241930791575e-01
      -2.3573043666936529e-02 5.7397704292577838e-03
      -2.1338392608889767e-01 9.8442865583946937e-02
      2.1356059606185157e-01 1.2306242201525569e-01
      1.8838375246712596e-01 7.0826619342530969e-02
      1.0641831293518571e-01 -3.6806064297755715e-02
      -2.5201965055366821e-01 1.1163406652465104e-03
      4.4649126146667245e-02 -1.4557815473011538e-02
      5.4288297037011074e-02 2.7885895447027204e-01
      -5.5397210809630615e-02 -8.5750418136226414e-02
      1.4294171387673443e-01 -8.5588976771247965e-02
      -9.3009370151198922e-02 -2.1883751442657859e-01
      1.6723417493390264e-01 -1.0730453482601364e-01
      9.5195134159166445e-02 3.1647808358344076e-02
      9.9501026249364258e-02 -2.4756643040815271e-01
      1.0062575888172447e-01 -1.8957320685713408e-01
      -3.6794740591329408e-02 -7.1983086669731827e-02
      1.8795332872305162e-01 -1.1821458645710070e-01
      -2.1271012018437291e-01 1.4165345862176548e-01
      -1.8666534558365713e-01 1.5757442763098661e-01
      6.8631805320757064e-03 -2.4419175486523789e-01
      2.1664963605318321e-01 -1.2377538812111739e-01
      1.4462549221503487e-01 -2.1129392889895798e-01
      1.0523316168687250e-01 2.6756950342831830e-02
      -7.9269801960378632e-03 -1.8281459741348832e-01
      -1.6488086615903286e-01 -2.3795150162804264e-02
      3.9483187597658030e-02 -3.8476362209729588e-02
      -2.9532239817665205e-02 -1.0085240130080299e-01
      1.1607148807441228e-02 4.5990118092987087e-02
      1.0297523461713910e-01 7.2816084061204003e-02
      1.8430664985128804e-02 -2.5301080962811934e-02
      1.4956210092627292e-01 -1.2671516263405489e-02
      5.0834605026712859e-02 -2.1927140701155143e-01
      1.7153301338025248e-01 2.3150758862183398e-02
      1.4464254496639703e-01 -1.5979244074689930e-01
      2.7373709746777365e-02 2.9362581096121332e-01
      7.3225826651330331e-02 -2.3962944251382079e-01
      6.8809076582016848e-01 3.1220021753319348e-02
      -2.1317573839377754e-01 -3.9123437261115439e-02
      3.7923700809063897e-02 1.5890186982337368e-01
      -8.6598897771383104e-02 -1.7289576573726037e-01
      -9.1491256310191768e-02 -2.0864724408184862e-02
      -2.4179933003528331e-01 4.2529499383024860e-02
      -4.0580416980750073e-01 -5.0889177790459657e-02
      -1.1451942732249498e-01 2.5715318993670150e-01
      5.3096661912636053e-02 -3.4679038780748801e-02
      8.9882084519365510e-02 3.9983190413822901e-02
      -4.4349893659295203e-02 1.4733334269398066e-01
      -1.3592397537697459e-01 -9.9718929982794316e-02
      3.1833403592850723e-02 -2.3568532017549798e-01
      5.0393153315351505e-02 1.6918519512099026e-01
      -2.7728058679767156e-02 9.9478932424960378e-02
      -5.7855284416632805e-02 1.1656495750978307e-01
      4.0670182105554298e-01 2.3026402454992267e-02
      1.4914111864181803e-01 1.8841306531106561e-01
      -4.4418665301110813e-02 -1.8942904042642522e-01
      6.5201990987644731e-02 1.8516772488533634e-01
      -8.4467973581239045e-03 -1.3180912091688893e-01
      -3.3615074064414302e-01 -3.1112208987941314e-02
      -7.0214930252895991e-02 1.1943694435952290e-01
      -7.3419542714145095e-02 1.3634608841675497e-01
      1.4456181414476482e-01 8.6131630190626557e-02
      2.3355103052872897e-01 1.8385728401506568e-02
      8.4129570403359541e-02 -8.6619746792270125e-03
      -2.4316276491717654e-02 -1.9260328215826264e-01
      1.1074528327870718e-01 -1.6500633108383930e-01
      -1.6255101988149681e-01 -2.7849902223079370e-01
      1.1836894438263458e-01 -1.4344550920574756e-01
      -3.7502120250122901e-02 2.3094096654896978e-01
      3.9605729802117157e-02 1.8778048083940177e-01
      -2.2404194003911655e-02 -3.5812940882669364e-01
      -2.7268948172259948e-04 -2.5877678893884726e-01
      1.3865334712054969e-01 -3.3683117836661591e-01
      2.2582699402870429e-01 8.8336909944968386e-02
      6.7781304649654942e-02 -2.1758268383852528e-01
      -2.1832231057871292e-02 2.6984655107464468e-02
      -1.0834957489973228e-01 -2.0098165155903278e-01
      -1.5639870741538184e-01 -3.1125128304930416e-02
      7.1875483428987003e-02 -8.2808297564291672e-02
      -9.8752382621374798e-02 -1.1077069867959101e-01
      -2.6049410935810341e-01 -2.0944994501704034e-01
      1.2395533007205908e-01 -1.5907792346410529e-02
      7.7040902412563086e-03 -1.4212467227663880e-01
      5.0045372852244037e-02 2.0392081014366212e-02
      2.5047140130308743e-01 4.9353896589367660e-02
      -9.7524607722730500e-02 2.4346989402948752e-01
      -4.7067968678254305e-03 3.8261472615605213e-01
      1.1555155737905728e-01 -6.5675210564676553e-02
      -4.7901397350014974e-02 1.6370290609534602e-01
      -2.1164627947167131e-02 1.4813199182243267e-01
      -1.2105805093308879e-02 -2.0433979590032242e-01
      6.8601835933253710e-02 -1.8998420453577305e-01
      1.4059626526307245e-01 -2.4509129674367244e-01
      -3.7356413267110800e-01 -1.2495787496250435e-01
      -1.4035157864412418e-01 5.2196914175751896e-02
      1.7474220615338057e-01 1.2147267173929262e-01
      1.6661022342748355e-01 -1.8875936748058778e-01
      -2.0131646117135371e-01 2.5834661408919851e-01
      -4.3315238834792449e-02 1.4532150508114200e-01
      -1.7723096364042019e-02 -2.3752798150900720e-01
      -8.3967402839719860e-02 -7.5394804756153712e-04
      2.1115227885599502e-01 -8.0379527265936931e-02
      -8.7950326248614957e-02 -6.1317709731776908e-02
      2.4409026938748415e-01 6.2044768011743009e-02
      -1.1320268535302616e-01 1.9859011985443586e-01
      -6.7107007983971595e-02 8.2317430644129969e-02
      -3.1774889777865335e-02 -7.2925032852245372e-02
      -1.0279763401518724e-01 3.0718981874706570e-02
      7.3006281276849138e-03 -2.1431867396281631e-01
      -4.0673541646429586e-03 2.4465411948099708e-01
      -1.1376669715491669e-01 4.9018884502756439e-02
      2.0394733992347669e-01 2.3373581247567981e-02
      2.1974853974251296e-01 2.5934251482979320e-01
      -7.9390827656394825e-02 1.0408951059670531e-01
      -6.3672937975395402e-02 -1.4437665951522030e-01
      -6.5397236545748666e-02 -1.6888675042749518e-01
      -6.5366998768200943e-02 -3.5145414419362135e-02
      2.7158686565380613e-01 -1.1310246603768820e-01
      -9.9533496660300758e-02 -4.8849472615457440e-02
      -1.2125297004661655e-02 -1.7259149355598996e-02
      -1.7983843834537092e-01 -7.6201983281141264e-02
      -8.4694136498283806e-02 2.2712897501141825e-02
      8.9201371618355993e-02 -2.0437080369387228e-01
      1.8306922702396633e-01 5.1311143020943500e-02
      -7.5139787801831545e-02 -1.1558848602673331e-01
      5.5118492105409055e-02 1.6413389151862848e-01
      1.6975687972810416e-01 1.8815161474133682e-01
      3.5633569757580606e-02 -9.3229425522404152e-02
      2.0609154103597607e-02 8.1576411871558355e-02
      8.3655266866414821e-02 -8.1674527656275635e-03
      -2.5914850134889084e-01 -2.0982095913293988e-01
      -1.0285676474153838e-01 1.5028823905125660e-01
      1.3405688496297521e-01 -2.4311334255144756e-02
      -5.6498141785178341e-02 -2.3415345684985286e-01
      -3.4229663848216040e-02 7.4165603616803216e-02
      1.2975490334554316e-02 7.4920834148090115e-02
      5.0682529908411052e-02 2.9090814649900210e-01
      -4.4336038374170716e-01 -9.9958814320215500e-02
      -4.4568175647675241e-02 -2.8417495766787697e-02
      -8.6366061550663273e-02 -3.1951463843542000e-02
      7.7624698333518538e-02 6.1487929445166283e-03
      2.8762868343785231e-01 -9.0120724444860828e-02
      -5.8489705540894762e-02 -1.6898154058467500e-02
      -3.1395387945373615e-01 -5.2900462106579296e-02
      -1.8578202406574684e-01 7.4558793287595973e-02
      2.8882163423659185e-01 2.3759502696423074e-02
      2.0811625157038435e-01 -1.7598573654488639e-01
      5.9623050395643293e-02 1.0221229599927355e-01
      9.5589096410838903e-02 2.4527194297827951e-01
      -1.1782378503168039e-01 -3.0280532752723960e-01
      6.3374731999813277e-02 -2.3499700526504189e-01
      3.0072292251347688e-01 -7.9145682256430427e-02
      -3.6839215468516887e-02 -5.4414502522856865e-02
      -1.4186686268932288e-02 -1.1246809017611949e-01
      4.4586313525971970e-02 4.3627658170802325e-01
      -1.2778652430038290e-01 2.2131437218895439e-01
      1.3480390837801529e-01 1.0119103091025720e-01
      -1.1794154067173500e-01 -2.8989177816190974e-02
      -1.3050104741177834e-01 -2.0595829511088909e-01
      8.1895075866456779e-02 2.0071559503601741e-01
      1.0606719290954139e-01 -1.3356035920644979e-01
      1.8087117838950117e-01 -2.2029283189525682e-03
      -2.7145882913516654e-03 1.8813509822245167e-01
      -2.3296061002312504e-01 1.9258547809868667e-01
      1.5205306237669114e-01 1.7765927647463955e-01
      -6.9463058034633443e-02 6.5810954668353572e-03
      6.6934722397889515e-02 3.3540863027497494e-03
      1.6993838051470403e-01 7.7906669582019555e-02
      -9.0376694356346834e-02 7.2442576146758919e-02
      2.9314105260171766e-02 -3.3562315065509066e-02
      -2.1267879970736570e-01 6.7151123314046296e-02
      1.2038171277019229e-01 -6.9010746596164949e-02
      -9.0681163411504451e-02 -2.8243449686176958e-01
      4.7882390526824851e-02 1.0068514401347306e-01
      -2.7656460265822075e-01 1.9684294510368586e-01
      -1.1610634430386080e-01 4.2909622345658559e-02
      1.7327635895689331e-01 1.5436529148284309e-01
      1.9242291075117088e-01 4.6110181909979460e-02
      4.2226208571750551e-02 2.5112978116326828e-01
      1.1853788810320107e-01 9.7963260784860742e-02
      -2.0898927622112654e-01 -1.7929249972091604e-01
      3.2285562276183444e-03 -4.6006987832254917e-02
      1.3754612430415261e-01 -2.9250344900969183e-01
      -1.3835024136335081e-01 -9.7692654142150115e-02
      -1.2957979589423674e-01 1.5509239581659684e-01
      -6.5268121355664371e-02 -4.6958771234730662e-02
      7.9895340982897523e-02 -3.1712577937472765e-02
      -7.1484958711892588e-01 4.5757389671541703e-03
      -1.4086350584970539e-01 -2.3032794461640901e-01
      9.1778780845965344e-02 -1.3577021314902654e-01
      -3.0866990603978343e-03 9.4830070414010838e-03
      2.0109611469175268e-01 -9.1650090960289365e-02
      -7.4236284428116847e-02 -2.9957979916557298e-02
      -8.7111464998821220e-02 -2.0700483745287468e-01
      1.4110276772277880e-01 -9.4388047287930821e-02
      1.3968234911929256e-01 5.4430553657818868e-02
      2.3333040202347255e-01 -2.6708097922563262e-01
      -1.4591337335276552e-01 1.6014163634525794e-01
      1.9657415170025583e-01 2.3219896944052912e-01
      -8.2222837152405706e-02 -1.0306971415081895e-01
      -9.6107359576554571e-02 2.6789952763935654e-01
      2.2555277158222289e-01 -3.0427003291935008e-02
      1.1185765851912662e-01 3.5523492070866726e-02
      -9.8162543204670695e-03 -2.1533757211208207e-01
      -1.1765690527222857e-01 1.0479843029107019e-01
      -1.7954958128428861e-01 1.6976906899653052e-01
      1.6830458259032138e-01 1.3447251550642222e-01
      -2.0210562961006764e-01 1.0874775175557942e-01
      -2.0379704579986638e-01 -1.5100927635416578e-01
      6.4722472038734297e-02 2.3732375876778505e-01
      1.0337684695502143e-01 -2.7257469821776104e-01
      2.2916160749240227e-02 5.1340135570344031e-02
      1.2045633670340639e-01 -1.6834063048882991e-01
      -3.7761875944599937e-01 1.1196688238112278e-01
      1.5427567907421164e-01 2.2141864180231186e-01
      1.5001314860616372e-01 -2.6558449004557623e-02
      7.5731558760180478e-02 -1.8201351021849554e-01
      2.1481968091085044e-01 1.1828813620570150e-01
      -1.6300344482080470e-01 -1.2353802009566046e-01
      -8.6172751721287341e-02 1.6581024882111278e-01
      1.6912935007767551e-02 -4.8876263422280523e-03
      4.0529730247881993e-02 -4.8779844483119415e-03
      -1.9470606364275012e-01 -2.4200085483962805e-01
      1.1215570785127008e-01 1.6018534131817797e-01
      -1.5690034760882207e-01 3.8898295089199519e-01
      -2.5736193707627830e-01 -6.7053010368739513e-03
      5.7497324167587400e-03 8.4975551556942641e-02
      1.5698821443813946e-01 5.8953830728747166e-02
      1.9142636790962084e-01 -1.8966530635538767e-01
      1.3310299423612304e-01 1.4585205156589592e-01
      9.2788350423922850e-04 -1.2549211641387631e-01
      -1.1727947455397827e-01 -2.0199225051732808e-01
      2.7896577318658026e-02 -7.2121731514834989e-02
      1.2317555782711400e-02 2.4104915573524491e-01
      -9.2844867431268144e-02 2.8890090494176296e-01
      -1.2236767679490911e-01 -2.9293502323381193e-01
      8.4091714288036370e-02 6.3755073527986622e-02
      9.3624872379456030e-04 -8.7277942378030703e-04
      3.8266106402877905e-05 -3.2500356099705494e-03
      2.5617409692236552e-03 -1.2346571936940073e-03
      -2.9251686393022697e-03 3.0987697688275827e-03
      1.4562546599682980e-03 4.7439329072751252e-04
      -5.5175222304725501e-04 -2.5625176483240323e-03
      3.1332557139942159e-03 1.1879892473837961e-03
      8.2777579848808327e-04 -8.2372869960116207e-04
      -8.1675913901716715e-04 -1.2294512085474821e-03
      -1.1354256502157025e-03 2.6629457444420973e-03
      -2.9611032439695825e-03 1.1292999289420176e-05
      9.3616688781232794e-05 2.4480966582852795e-05
      -2.0508018872450748e-03 5.7374029276660793e-04
      -1.3580962248349268e-03 2.6799933676551553e-04
      7.3073680215259907e-04 2.4456470715615323e-03
      2.5845423065987512e-03 2.5293129223257133e-04
      -1.4944627075905205e-03 -1.4076150664023592e-03
      2.3981957783417193e-03 2.0266356883697338e-03
      2.3266630029893104e-04 -1.2332049315108100e-03
      2.7984711239761851e-03 -1.8134343556574343e-03
      1.3014384067325474e-03 -2.1133455154334264e-03
      -2.4393019151935837e-03 -3.0175377645479582e-03
      -1.4519223494774414e-03 7.7776554763884739e-04
      -2.9483064926332260e-05 -2.8765698172376858e-03
      -2.8545726325248286e-03 -9.6580961717136456e-04
      1.0005883402770634e-03 5.5654652757528662e-04
      4.8079123607282508e-04 -1.8789367870518127e-03
      -5.3888847119380149e-04 2.3388475861092985e-03
      -2.5230250728304921e-04 -1.5792478210235464e-03
      -1.3555958637139921e-03 2.6630735721849398e-03
      1.0052308052998129e-03 -2.0552260708428167e-03
      2.7496124878809013e-03 3.4897513843709746e-04
      2.0412775263757032e-03 1.5459718877769300e-03
      1.4052958375741502e-06 2.9362558592719109e-04
      -1.9970631307787068e-03 -1.9820971828242492e-03
      -2.2123127179476767e-03 2.1837177450449246e-03
      -1.2807669065190302e-03 3.0831262061540663e-03
      1.7718148869991363e-03 -1.9812805941388017e-03
      4.8348906969328086e-04 2.2253088828343942e-03
      -2.5545256764316769e-03 1.7755139355777778e-03
      -2.5243056985069668e-03 1.4441488945861830e-03
      1.5290531347603731e-03 2.7668114610845396e-03
      2.8142751937716959e-03 2.8409113955144170e-03
      2.1751746984293467e-03 -1.3941604560178858e-03
      8.2028489639636654e-04 -2.5999750207472133e-05
      1.2714561227565539e-03 -2.1476569225586164e-04
      -3.0843110387249904e-03 -1.8166189413343877e-04
      -9.7172531877534412e-04 -1.3573834838996148e-03
      -7.2317657088450695e-04 1.9407796137640267e-03
      -4.2747083328262237e-04 2.4917786386119412e-03
      7.7721177961116738e-04 -2.9968865333132280e-03
      -2.1617350003806080e-03 1.0706266965853488e-04
      2.8677616320621590e-03 2.2118488970274317e-03
      8.6180424065243077e-05 1.6092777137745060e-03
      -2.1313895960617447e-03 -3.0116668949429423e-03
      4.4940459129045457e-04 -1.8791128189782347e-03
      -1.0933607244439372e-03 3.6896231433553440e-04
      -1.5281899290474628e-03 -1.1510612969705251e-03
      2.5038231262559676e-03 -8.1296460365108756e-04
      -1.4115886747299601e-03 -9.5428217834821064e-04
      -1.5077730015200742e-03 -3.0367258005106483e-03
      2.3413829349368601e-03 -6.9474428936438040e-04
      -2.3083832712059850e-03 -1.9525091208606018e-03
      -2.0838043140565909e-03 -2.6759624985960837e-03
      2.4761300289491317e-03 -2.2493293215851266e-03
      -9.3106191074099017e-04 -2.7101751331748071e-03
      -2.9900506374661451e-03 -2.8293613592487183e-03
      2.2151351466118503e-03 -2.2925199136311948e-03
      2.4429943319728893e-03 1.5680816303736496e-03
      3.2542249604007633e-04 -9.8430163356679314e-04
      4.6329662481279981e-05 2.8542024835619519e-03
      -1.7789318752757274e-03 7.0591364483217210e-04
      2.6262116832259717e-03 1.4932091990542686e-03
      -3.0804669391570508e-03 1.2690159500523773e-03
      1.1727933498817972e-03 -2.2541385107631580e-03
      2.0411693287895262e-03 3.9331589347483989e-04
      3.0205074565911099e-03 1.0047235990319288e-03
      1.8723008604980571e-03 -5.8038665455925587e-04
      1.5783472728787989e-03 -2.2317969629429930e-03
      -1.1046238348329834e-03 -2.8380577913921321e-03
      -3.6319752333145749e-05 1.5369105993731024e-03
      -2.7640450507350352e-03 -1.7851451855711662e-03
      9.3409403580336375e-04 8.7215507150876235e-04
      1.9119950704462221e-03 2.1477648541059165e-04
      9.5177736507706776e-04 -1.0582222609244398e-03
      -2.5033391296336530e-03 6.8474418502849908e-04
      -1.1129242652283071e-03 -2.9060535830031345e-03
      1.0649368184199102e-03 -5.0259261447273024e-04
      -1.3558681846317284e-03 2.3975299874373149e-03
      -1.3506817077304724e-03 2.5325486646756699e-03
      1.7131989311308920e-03 -1.4789514025324356e-03
      3.8352764029298616e-04 2.4500125393178535e-03
      -3.2110775268198791e-03 -4.7948466233828244e-04
      1.0743035871226922e-04 -2.4827738396563620e-03
      -1.2188435222067163e-03 -9.7828930287624256e-04
      8.6156614284421153e-04 2.7011139318084314e-03
      -1.3808084876280504e-03 -5.3804952120598158e-05
      1.6100510530390872e-03 -2.4689060567469104e-03
      2.3387845147989734e-03 2.6754375347144321e-03
      -2.3670483097626340e-03 -2.5282490073925330e-03
      -1.0600829610319420e+00 1.9131522602058940e-01
      -2.5916104331867376e-02 2.4112676929435278e-01
      -4.5671489511453006e-03 1.4051566335602290e-02
      2.2350765639718503e-01 -1.2791469882747830e-01
      -1.0097765970835328e-01 -3.0224701438443628e-02
      -2.3161460476514792e-01 6.7175356912910530e-02
      -2.0377832374916369e-01 4.8857816105716934e-02
      -9.3739440624550960e-02 -5.3073420499179090e-02
      7.7878996344338036e-02 1.2030940283266656e-01
      4.3981294591566536e-02 1.5474306754788777e-01
      7.1734002759359705e-02 -1.1621616578089430e-01
      -1.0058249033966316e-01 1.9531163489370501e-01
      1.1545867545714304e-01 1.0841761982515921e-01
      -7.6105170292311806e-03 1.3136235666555779e-01
      6.7283064393993605e-02 -5.3766779727665304e-02
      -8.4948016627965375e-02 -5.4180095141482087e-02
      2.5527226694325700e-01 1.4189197403304052e-01
      -6.2691531173457819e-03 -1.6442834924507512e-02
      2.9090284713331444e-02 1.6464639351822910e-01
      9.3830501482864273e-02 4.9000573769945946e-02
      -1.1958127417625908e-01 4.6744747077028720e-02
      2.0858818384681121e-01 2.1752190569686791e-01
      -4.5765319498411956e-02 2.7529882250348369e-02
      -2.0171144400959098e-01 -5.0680061834184803e-02
      1.0513258170888129e-01 -8.8477968987532629e-02
      1.5342435890092385e-01 3.2212257764875624e-01
      -4.7003843749867328e-03 -4.6909086704902452e-02
      -3.6907685680319553e-02 -3.5221496428832250e-03
      1.4360824464616256e-01 -7.3502626005823593e-02
      7.9956441681382245e-02 3.2861926253046220e-01
      2.4708219445595131e-01 -8.5038861717275666e-03
      2.1567047149167531e-01 8.7629268815130862e-02
      -1.1898006484590083e-01 -3.9102289537058674e-02
      -3.5309943198168686e-02 -2.7051054016815543e-02
      -6.9687974213219053e-02 1.5019522916434299e-02
      1.3380278025936110e-01 6.5978418015348192e-02
      4.9361581291084845e-02 -1.5276088767722192e-02
      -2.7811546020495553e-01 1.6663233524365891e-02
      7.1200293010874577e-02 2.2835819260586188e-02
      1.6305917945375982e-02 1.9864562494624555e-02
      6.2249523414859828e-02 -4.4946301460138768e-02
      -1.3782358661859720e-01 2.9021107456627027e-01
      5.1311832863643558e-01 -1.5355249637254952e-02
      3.2305779590480471e-01 -1.0126382629561502e-02
      -1.3603843277232483e-01 3.4906903406008744e-01
      3.0558157391009214e-02 6.4574426860842443e-02
      1.7285660604825387e-01 -2.0903063459931698e-01
      7.0448092103964272e-04 1.8931780233148340e-01
      -1.1019197476887076e-01 -2.4659282552654380e-01
      3.0881044492029934e-02 -1.5212555850848902e-01
      -9.8173796305898831e-01 1.3061474326931622e-02
      1.0299556472679967e-01 6.8668610014429560e-02
      -3.2391896173639108e-03 1.3038971412068340e-01
      -1.3693803586870282e-02 3.2508410044899183e-02
      1.3000414124324980e-01 -1.0869516517356570e-01
      -1.2443998696718039e-01 3.3424884834130669e-02
      -1.7783731909391909e-01 7.3108766618499257e-02
      -3.9567895442720158e-02 -1.4475291427245224e-01
      -1.0868706027247994e-01 -5.1267423213869276e-02
      4.7592931481319802e-02 -1.6596117923356235e-01
      4.5727801288727186e-02 7.6877614932468362e-03
      -5.5884282566238681e-02 7.8889854879913693e-02
      -6.0339291231664254e-02 5.8558286197313625e-02
      -2.6242812347529756e-02 1.4244688909512465e-01
      1.3730952900197044e-01 1.3199304633047798e-01
      -8.7369946594022446e-02 1.9434563941660382e-01
      2.4241408809767595e-01 7.1419485357499701e-02
      1.7276572513710689e-02 -1.8477953222744234e-01
      2.0086485557419148e-01 9.3974284253317039e-02
      4.6017134370036461e-02 3.9467302902583067e-02
      4.2493774894768743e-02 8.4463716015538894e-03
      -7.5911432166794232e-02 -2.1566636347183317e-02
      -3.6908906224557151e-03 -3.1046908143323351e-02
      -6.1818333455571244e-02 -1.2593364718647332e-01
      -8.6958842270312725e-02 -1.8023377157314088e-01
      2.1388835314950932e-01 4.5247958693916783e-03
      1.6740226307156852e-02 6.0072817338947650e-03
      -1.0199910480643044e-02 1.6038342156817511e-02
      1.8686922978087309e-01 -2.1102449732308262e-01
      -4.1105965157538796e-02 1.6223543894117101e-01
      3.5407415296366529e-01 4.5163263006746814e-02
      7.8575159667140820e-02 -5.2175966769958271e-03
      -9.9335062527732124e-02 1.4880468268170910e-01
      -2.3863322300446219e-01 -9.7971801732982311e-02
      -9.5490943516072568e-02 -7.6733569313241740e-02
      9.9374820373740319e-02 6.2669568082013433e-02
      1.4293527242636297e-01 9.0334230016529571e-02
      -3.5722193233012417e-01 9.5917894677447560e-02
      1.2070764635069668e-01 -1.5369799886755758e-01
      -2.5764190406985642e-02 -1.4495707903623362e-01
      1.7403485827957221e-01 7.0091728900030820e-02
      -2.1168849436132512e-02 3.0756593162916529e-01
      6.0316519327614748e-01 6.7406358622743551e-02
      -5.0218421192275743e-02 1.4654125124815098e-02
      1.1428136020094776e-01 2.6647115427684115e-01
      3.3949547114851553e-01 -1.0707403841676003e-01
      1.9221395685851486e-01 -2.7999232531994500e-01
      2.4406390659461433e-01 -1.2710122679173165e-02
      -5.5348143014634456e-02 1.8341597792453437e-02
      4.0724105624817104e-02 -2.7287801669784040e-01
      -2.5646610112417761e-01 -9.5410818900837441e-02
      7.0707589954424305e-02 3.6293189258116731e-01
      2.7171938102778313e-02 -1.0338589959154926e-01
      -1.9850360418682236e-02 7.5616673353229198e-03
      2.6476048558270898e-01 -3.1201802397811018e-01
      -1.6217998153794333e-01 4.8550507673852696e-02
      -5.2904920399956486e-02 2.2730410545920604e-01
      -8.9889599951121987e-02 1.1665904457636957e-02
      -5.2931042218856049e-02 -3.0334114386743098e-02
      -1.5600858905918186e-01 6.5133949901506963e-02
      6.8722525528685713e-02 -8.9143742530564785e-02
      1.3994747861932091e-01 1.4619157553462048e-01
      5.4098307512622637e-02 -4.3938418705907053e-03
      -3.6067411449639680e-02 -2.0224962219821133e-02
      6.7954539305064385e-02 7.9619944375462035e-02
      -1.7320717037240610e-01 1.8775681863773216e-01
      -4.7820374958726923e-02 5.1333192713506434e-02
      -7.1089799051905749e-03 7.9005028213830750e-02
      1.4356534199941187e-01 -1.1602305096264703e-01
      -3.0488305632776339e-02 -9.7503950746253201e-03
      2.5610869209777770e-01 -3.4014980268446494e-02
      -3.6087230385306551e-01 5.3008185589680540e-02
      4.0137240609289568e-02 -4.6667553074700796e-01
      -1.0620634355635802e-01 -1.2063036585880264e-01
      -1.2629324331283029e-01 -2.4874153057409173e-01
      1.3679877996972220e-01 9.6423196524516530e-02
      3.4066544892798381e-02 7.8395263643745383e-02
      -8.0948982152968488e-02 -4.1549503784221911e-02
      -1.2326773705510042e-02 -2.9147187427193993e-01
      -1.3414275482256208e-01 -5.0489161674082635e-02
      1.2974995230472841e-01 -1.9935875937002143e-01
      -1.2505378818155005e-02 1.7790851068568064e-02
      -2.3910172541354466e-01 7.0653988672264273e-02
      -1.5455100720224255e-01 4.8973287343317018e-02
      1.8544608691459942e-02 -1.1241744197857802e-01
      -1.6848803527083264e-03 -1.0681026560532599e-01
      1.3471036656475591e-01 -1.8074126271007983e-02
      -1.1895291547351963e-01 -7.5070110341057594e-02
      -8.0279582203539396e-02 -9.3529094219605910e-02
      -1.5280426782223463e-02 -5.5614697318416402e-02
      1.7201868879238580e-02 -4.2291043547767526e-02
      -4.9806611477304787e-02 -8.2299750845125398e-03
      1.7779670573017750e-01 -1.4580285398560664e-02
      -3.1277391550504970e-02 -3.5242227188230529e-02
      2.8481953045136132e-01 1.5379884865754806e-01
      -1.7531103395968450e-01 -2.0293615501347326e-01
      5.1814885861878905e-03 -8.0587770098518322e-02
      9.6602530143023488e-02 -3.4476023462917824e-02
      -1.0796305409731695e-01 1.0873276010856976e-01
      8.7498562805660464e-03 -5.5977497445769728e-02
      7.9394952863294843e-01 2.5307949860911047e-02
      1.7009824884212021e-01 5.8635216595200546e-02
      -5.7652850069135529e-02 3.6544288044402583e-03
      -8.2873151258885835e-02 -1.3903178036128253e-01
      -1.4594722575328470e-01 -1.5707227681150190e-01
      1.0181184252445505e-01 3.1083948240021569e-01
      -6.9886967201385972e-02 -7.7465117063893960e-02
      -1.4892660297295027e-01 3.1947190452421320e-01
      5.5643363215014209e-02 1.3375584536447672e-02
      -3.3808825534396118e-02 8.7524570070398634e-03
      -7.2087900976077590e-02 3.1564587172472770e-02
      1.3043937793157473e-01 9.3364278080035709e-02
      -5.5163466947054325e-02 1.6833355401505035e-01
      -2.8700909658342766e-02 -1.3238405578438830e-01
      -1.2800088729591405e-01 3.9228283348930144e-02
      -1.6940713528077556e-01 4.3757686001786228e-02
      2.3154972438948859e-01 2.2015478030720720e-01
      -4.2960455637644918e-02 1.2396356626602180e-01
      1.4987489177747446e-01 2.4783155584320791e-02
      -1.8882654388400882e-01 -5.1552896457553225e-02
      3.7136076762738619e-02 -3.3845201987955383e-02
      -1.8002717375137775e-01 2.9904780614744203e-01
      -1.0301137779902715e-01 -3.4381877435805164e-01
      1.9725499562249002e-01 -5.5016473966831868e-02
      2.6091248932826161e-02 -1.4570109745884807e-01
      1.5427524652790209e-01 8.8841844341521092e-02
      1.6268200754123729e-02 5.7444603889165204e-02
      -3.0085141458034575e-02 -1.1427432734294812e-01
      1.2640839661897432e-01 -1.5394147353185875e-01
      7.5455856974856420e-02 9.4994874186338993e-03
      1.4131250810897053e-01 -1.4319563436236149e-01
      -1.9812745242435248e-01 1.0878091617468699e-01
      -1.9085674653676690e-01 1.1217633718112986e-01
      -6.4528964921156229e-02 -1.8078179665607480e-01
      2.2399835112340233e-01 -3.6686697231060050e-02
      1.9127692838888219e-01 -1.8780488973970966e-01
      7.7236536035494949e-02 1.1962003097776157e-01
      -5.8423123810583857e-02 -2.4910282154453134e-01
      -5.8706310766578500e-02 3.8041349690621659e-02
      -9.9584437762911801e-02 -1.6139096141623302e-01
      6.2102863352796835e-02 -1.4838124299496191e-01
      -5.4340675411928149e-02 1.8866216062666967e-02
      1.0786545954726931e-02 -1.7124524060754362e-03
      6.7778835335126728e-02 -2.6657919043402107e-02
      8.7666218215992603e-02 -4.3113339409024648e-02
      -2.0272314112445211e-01 -1.6147696212997886e-01
      2.8361353193774846e-02 1.4869474535532570e-01
      1.2579301301143606e-01 -1.2478411166009433e-01
      2.5940416829427344e-02 1.2844957274446681e-01
      1.7471351582684080e-01 -1.3720362297672520e-01
      9.6467964439892462e-01 7.5520378145374226e-02
      -3.9086017195302150e-02 -8.7515361764198385e-02
      -8.7960293317082397e-02 1.7620052660432090e-01
      8.3806720869844628e-02 -1.1743626367550679e-01
      -1.5007017343846696e-01 -8.1168666435908185e-02
      -1.1342224079273025e-01 -7.2203939903947731e-02
      -2.4653321102351311e-01 -9.6583343814474365e-02
      -5.8092658901119906e-02 8.0197645085865327e-02
      5.0446197857595604e-02 -9.3423660404591217e-03
      4.7896678659558947e-03 3.1014883747291652e-02
      2.1459966359435260e-02 9.4896422003865916e-02
      2.2319075088286545e-02 7.6432939699936864e-02
      6.4808190154222498e-02 -1.3027911402184694e-01
      1.5243660695392269e-01 1.2267687822863284e-01
      -1.5618533290468514e-01 1.0573627341273989e-01
      -5.7703932996832082e-02 1.2734142781281918e-01
      2.1609864611698149e-01 1.0621307139013318e-01
      9.4174438977299768e-02 -1.0443539684887673e-02
      2.8173666637634764e-02 -2.5956911137999511e-01
      -2.9590904956356880e-02 8.5814970406729779e-02
      -7.6453481532009857e-02 -3.0717306683939859e-02
      -1.1923105825824865e-01 -4.0823328048977287e-02
      5.0871983539127259e-02 1.8133676786189676e-01
      -1.1238314762831930e-01 1.4354954453915975e-01
      1.3729042391116048e-01 1.4441746013881754e-01
      1.1268809022019032e-01 -1.7017779773242625e-01
      -6.8801276114071441e-02 4.6618206250422380e-02
      -1.3859777650904459e-01 -1.5533245800744197e-01
      1.2569608926946693e-01 -3.2775483774315672e-01
      -7.0973137520254817e-02 -3.5305553276933341e-02
      8.6948369304356399e-02 -2.4268178000670759e-01
      -5.9344310958248984e-02 8.0940380957810532e-02
      -4.6179947541168664e-02 2.1383755980306740e-01
      -1.2655095416186279e-01 -2.0865583039574403e-02
      2.3335481616265460e-02 -6.3775898439710141e-02
      1.4251484635391637e-01 -1.8420133065709057e-01
      1.4155437900321505e-01 1.5052619932280756e-01
      5.2200009370783354e-02 -1.6284800522611081e-01
      1.4454795809338006e-01 1.2792788793664620e-01
      -6.5542129374888819e-02 -1.7938269725564021e-01
      -7.1466388073433681e-02 -5.1218577128073282e-02
      -2.0647305203897109e-02 -1.2612909628064362e-01
      -1.2198772146009570e-01 -1.3975530295688876e-01
      -2.2244979539486401e-01 -6.7121032541018755e-02
      1.1006272780878811e-01 -7.0618179868744302e-02
      -2.1629298938177000e-02 -3.3153883290011989e-02
      -2.1717661008178003e-02 1.2984762951623393e-02
      -3.1920726627838715e-02 1.3781116932765655e-01
      -2.0009885783729653e-01 1.8802155038903293e-01
      2.7572609836344138e-02 1.9826793057656195e-01
      6.5511043784726886e-01 9.3640644189739754e-03
      1.3001793920433541e-01 -3.5451638930854096e-02
      -3.4551927660781648e-02 1.9698245465938871e-01
      -8.8774051119081224e-02 -1.3678378089207399e-01
      -2.4757844392044484e-03 -2.1270859787599650e-01
      7.6790779723245432e-03 1.4465812698276846e-02
      -1.3431727126148896e-01 -2.4646717715081004e-01
      -1.8341178357317977e-02 -4.9757033447007180e-02
      8.4494272203792978e-02 3.9888501429859530e-02
      7.3110754203198472e-02 -1.2453457803447487e-01
      -2.2626668164239264e-01 3.0485636791944470e-01
      -3.2619699708669680e-02 1.1498131493172964e-01
      -2.3826193701316327e-02 -4.1169966252583035e-01
      -2.9512093595542781e-03 4.8223629516562651e-02
      2.1382904048031010e-01 3.5074418523322673e-02
      -2.6670504324587875e-02 9.4790742153914257e-03
      1.6564792080937674e-01 -8.2028829582415266e-02
      -7.9235889747014024e-02 6.2760816403615791e-02
      -2.2771690646368103e-01 -7.9549264118803489e-02
      -6.5692960599147004e-02 -2.9766909038895428e-01
      -6.5688637248107418e-02 -8.5982723774709391e-02
      4.1073412718873867e-02 -2.6260081189245127e-01
      -7.9404622280380796e-02 2.6668483810494970e-01
      -1.3468060868531809e-01 1.2014499825419694e-01
      6.5217171883151070e-02 8.0378787994641931e-02
      9.7648801073669536e-02 -2.5731914037085864e-02
      -1.6930738080767735e-01 1.1749610950973395e-01
      -3.8274091218929600e-02 -1.1423017484044808e-01
      -7.8491768736788120e-02 -4.1483719023651465e-02
      -2.1554496091427646e-02 1.2886684484357250e-01
      1.9783490626187356e-01 -1.6258455915240894e-01
      -1.4739784121417535e-01 6.7222976129240802e-02
      -5.1303186755092843e-02 5.4183669638253017e-02
      -6.4618175781735704e-02 4.5929541106408595e-02
      -5.1332705517368279e-02 -3.5381832103916176e-02
      1.0908921726235131e-02 -6.9636208350168136e-02
      2.3313712908500356e-01 2.2183604204162211e-01
      -1.8828790881962942e-01 -1.4844019661859131e-01
      2.3492140750280111e-01 1.9224179355147450e-01
      5.2943378236905966e-02 2.0215265115125719e-01
      3.4578018979631239e-02 4.7659359875924213e-02
      1.1531909201922717e-01 -1.6106981599845489e-02
      9.9311647737016506e-02 -4.4584416641693873e-02
      -7.1773069828355213e-02 -3.2038253298818298e-01
      -1.1547515037264151e-01 -4.5464143031913783e-02
      3.0719793964614311e-01 7.1091824476636881e-02
      6.4173913999103480e-02 -9.8517718583776684e-02
      -2.0701134034582952e-01 1.2269016650326872e-01
      -1.1661383541691946e-02 -5.1906654587481310e-02
      9.3034509492074202e-02 1.2701990207301733e-01
      8.8510274911378653e-02 4.5653110001764606e-02
      1.8402571675402260e-01 -3.7952025636221076e-02
      -8.0279856295416743e-02 3.8722767358758660e-02
      -2.4182283795671139e-02 -4.5116562343666289e-02
      1.5142613554703854e-01 -2.0449379724879261e-02
      9.4633197539154265e-02 -5.3185483266439265e-02
      -7.1809288570531787e-02 -3.9671967945961048e-02
      -2.2120197559453489e-01 5.3411939540618361e-02
      2.2702974825698818e-01 -4.3604612835985893e-02
      2.4832247894972728e-01 -2.1993644053621986e-01
      1.1988123952782739e-01 1.1911218417767351e-01
      -6.8234040162239565e-02 8.3306270612006891e-02
      -4.5291875757699496e-02 -2.4769784996080496e-01
      1.1034524927341820e-02 -3.7841334327270902e-02
      3.2141840382380338e-01 5.4642340177437299e-02
      7.3432663668130532e-02 2.4282965705026523e-02
      2.2944714169478509e-02 -9.7743621265233976e-02
      1.3434891178494198e-02 1.0760513553130192e-01
      -3.2763992098845635e-01 1.0365012227420740e-01
      4.7923934057135277e-02 5.1767737382331917e-02
      -1.0203639463513196e-01 3.5066572616385072e-02
      -1.9295478271084660e-01 -1.2290098865485216e-01
      -1.3236976485322500e-02 1.5776364679807403e-01
      -6.9670594281218273e-02 7.3516442053072955e-03
      -2.1492031083755785e-02 6.3401375603790694e-02
      5.9795049605855750e-02 7.9291405485936522e-02
      9.7517417697723527e-02 4.3335412469534554e-02
      1.8533503984777835e-01 8.8365506320269308e-02
      -4.5866563196271448e-03 3.7569141168316923e-02
      1.5916422890964105e-01 3.9399267590001976e-03
      1.1018885116343564e-01 3.8961051669382941e-02
      -2.6811024676766940e-02 4.2641609535661831e-02
      9.6414774098913698e-03 -7.0068655670270291e-02
      -1.9456105349292585e-01 2.6284033936108574e-02
      7.0354179980194206e-02 -9.0220376393080476e-02
      -1.7080509365536528e-01 -1.0137078650293714e-01
      1.1776576184613722e-02 8.8229687708073337e-02
      -1.1251333118923719e-01 1.9273195479075553e-01
      -5.9867096590835898e-04 1.4109215651519555e-01
      2.9596034133398622e-02 1.9968687667880961e-01
      7.7881682384905601e-02 -1.4279840644896853e-03
      -7.9912671956239911e-02 1.4316782776903274e-02
      7.1350943583920233e-03 4.3396906012007845e-02
      -1.7338241748484992e-01 -4.4218817026173640e-02
      8.0216970735241935e-02 -1.2586835148177186e-01
      3.2035060758772321e-01 -1.0752357133226864e-01
      -1.0117997963225363e-01 6.1350402651853143e-03
      -2.0877861081672719e-01 1.4258482452912596e-01
      -1.9935130805776416e-01 -8.2283048459484712e-02
      -3.3449823406207159e-03 -1.9166862448813052e-01
      -4.3546005757873651e-01 -9.4632126249157289e-03
      -5.6632803914608031e-02 -1.7496291198967864e-01
      9.3863023715282046e-02 1.6940748696955710e-02
      -8.9803224369812432e-02 -1.3484140221924620e-01
      5.4733792382369445e-02 -8.0002973200272706e-02
      -1.0678934445444109e-01 1.2139932488918238e-02
      3.7304631969162186e-02 -1.6774003277677452e-01
      -2.6866819003709769e-02 1.2571190469126484e-02
      1.6828919279191512e-01 2.6357933892216825e-02
      1.0849711893973092e-01 -1.0613318272461450e-01
      -1.9579823809001209e-02 2.2855486608937739e-01
      1.7181833600063859e-01 2.8663705592730498e-01
      -1.8213327319516659e-01 -4.2866369395215639e-02
      -6.3634355931894870e-02 -1.6630032660302444e-02
      1.0704302581711171e-01 5.5054532958722500e-02
      5.5031428494859556e-02 -7.6452971589156454e-02
      4.6969450631375087e-02 -5.0296865198930500e-02
      1.2657935352472867e-02 1.3414014583605491e-01
      -2.2332721033656228e-01 4.5981614281600672e-03
      1.6675342097649960e-02 -1.1815120935896994e-02
      -2.1471171308159967e-01 1.2918594697064434e-01
      -1.1471925360774327e-01 -1.4218010704804604e-01
      -6.4161986826383979e-02 1.0700257246709624e-02
      5.1879291863316468e-02 -5.7362531228919704e-02
      2.1691717954054557e-01 2.3767405846144679e-01
      1.9111188277475682e-04 -1.5434934031487413e-01
      -9.4802801940661929e-02 2.3827987192818523e-01
      2.7959805068578641e-01 1.7830840108221355e-01
      3.4303404107334512e-02 8.6649932133094715e-02
      9.8831768018960514e-02 -6.8550371361419865e-02
      1.2428075172912488e-02 1.0882132129320510e-01
      -7.0785678088056914e-02 7.1263887653864474e-02
      -6.8981675335775816e-02 8.0675114172598192e-02
      -7.0755031710676153e-02 2.1283775315306633e-02
      -2.8543648348055953e-02 -1.1771515984679301e-01
      -1.7187340914697383e-01 -1.4062697175342106e-02
      3.7905129755522307e-02 1.7837824766864886e-02
      1.7786049905548409e-02 3.2085283165711953e-01
      -4.8318887920412210e-02 1.5671112331149373e-01
      -1.3687320815863696e-01 2.3923885479480175e-01
      8.6900496961533125e-02 -5.2603158562889649e-02
      1.8517395190720481e-01 -2.1057241468597124e-01
      1.7942480689758414e-02 7.3475017406093412e-02
      7.2560882899078361e-02 -1.2536537090499145e-01
      -1.3150600517459685e-01 -2.0186548534192156e-01
      3.2096494128605858e-02 -2.8213810395376016e-02
      1.0553795873330789e-01 2.1578283262217210e-01
      -1.2170873650761542e-01 2.3684848259972677e-01
      -1.2695666337678177e-01 -2.3542813459222384e-01
      1.2223160268590930e-01 -1.6715675201684285e-01
      -2.9734975233142945e-03 2.5180824106022441e-03
      -3.0549853645906507e-03 5.2315405172496520e-04
      -2.5138750579112665e-03 -1.6400805488875174e-03
      6.5707371347955288e-04 -3.2647569649816911e-03
      -2.5682534412109189e-03 -1.7139835574993486e-03
      -6.8137435079609909e-04 -1.7914510336439475e-03
      6.1951938802417661e-04 -2.2790440753693553e-03
      -1.1562131598123737e-03 2.2015636560046670e-03
      -2.0471152508914582e-03 -1.3060042295534628e-03
      4.9919892502897872e-04 -1.6258845554898238e-03
      -2.4693459095123569e-03 -1.7650708107633379e-03
      2.1211942222377502e-03 -3.4453637029413032e-04
      -1.4001627315734406e-03 2.3912795734818445e-03
      2.8946202489166704e-03 2.8585238909133405e-03
      -1.4283368977808970e-03 -1.3366195062392487e-03
      1.3183695743750926e-03 3.8934903164327306e-05
      2.7440190018946509e-04 -2.2232406612991958e-04
      7.3531894793208612e-04 -1.7108059270297890e-03
      -1.4273741678712557e-03 2.4890605207773270e-03
      -1.1699030682625774e-03 -1.7437695043195179e-04
      8.7790821811842929e-04 1.1905478182879746e-03
      -7.3562973224818343e-04 -7.0675333030797635e-04
      1.5999693571763101e-03 1.2466455848112591e-03
      -2.8163421962136810e-03 1.4899756856019447e-03
      1.2824616959945113e-03 -2.2317413537360628e-03
      -1.9981972325479398e-03 -1.3456485429920546e-03
      -8.9314634457101348e-04 -2.6454516311254835e-03
      1.6548640521595640e-03 -8.4607743579366242e-04
      2.0725725236221170e-03 -1.3226972667727272e-03
      1.9988942341143362e-03 -5.2851853982940065e-04
      1.4311251454630321e-03 2.5101019640656540e-03
      -2.8504547329051473e-03 3.8006305791541214e-04
      2.2062860240569027e-03 -3.7977551875147537e-04
      -2.0419374155640191e-03 -3.1201025428012888e-03
      2.7053440441463726e-04 4.5558742161238988e-04
      2.2390673671059577e-04 1.8950615393967692e-03
      -5.2064003543350981e-04 1.9253408548857748e-03
      -1.4803029850087909e-03 1.7779519684363635e-03
      -1.6204497972353647e-03 -1.1704500731575245e-03
      -7.9160072588829028e-04 -1.0987468650035435e-03
      -3.9245412609313472e-04 -2.9246416482364467e-03
      2.9527757785169691e-03 2.0612332533265754e-03
      3.2341476150657814e-03 3.2126387680008000e-05
      7.2761424437437828e-04 1.8672529166692156e-03
      -2.1490355915929006e-03 1.9503749020648095e-03
      -1.1035682980484913e-04 1.2460685628506237e-03
      3.8631847641209925e-04 -2.3291893954240752e-03
      1.3826810385378539e-03 2.4744134074928918e-04
      -1.2445263000104717e-03 -2.6517270342956995e-04
      2.0313473610838813e-03 -1.6752271627401981e-03
      2.5764687741893066e-03 2.2512990573048575e-03
      -1.1787458641444827e-03 8.9540548936730552e-04
      -1.0745264188572019e-03 -2.8236036791037217e-03
      1.1936762225275260e-03 1.1866209817248923e-03
      3.1430705832655352e-03 -1.5233248858564905e-03
      -6.3164617442741655e-04 -8.4100205658327169e-04
      -1.4953284095979868e-03 1.8232268822270332e-03
      3.0697772727077827e-03 1.2388501813421424e-03
      4.6624677826793146e-04 -7.9468952242637875e-04
      1.4669768903487319e-03 6.6094002811702547e-04
      7.3109971950467700e-04 7.3381649465660656e-04
      2.7093153939792211e-03 -2.9915717751232047e-04
      1.3468857019836040e-03 -2.6994675713038112e-03
      -1.2693394990238708e-03 2.1769610649492875e-03
      7.9176320262169830e-04 4.8130109634501140e-04
      3.0622562202790651e-03 2.1908950952539831e-03
      5.2068403675844849e-04 1.5821009231966117e-03
      -2.5835884311211296e-03 1.0776116272701078e-03
      1.3995397566924810e-03 4.9839906781542511e-04
      -2.2979129000897307e-03 1.1748855617148583e-03
      1.1286283372118049e-03 -6.9232255805018916e-04
      2.0792730672043380e-03 -1.6475266485910267e-03
      -1.5164756660280204e-04 -2.1961831751164868e-04
      2.2806589727868798e-03 2.5641973052437103e-03
      -4.4342821048460831e-04 -1.9994520192018712e-04
      3.1796894870341564e-03 -2.2298572788135781e-03
      -8.1582619421722939e-04 -2.1773524304320780e-03
      1.7266116115147901e-03 1.7954154476305542e-03
      -2.3105487431150143e-03 -1.3853179731137882e-03
      -1.5409186640550691e-04 2.4069563937010059e-03
      3.1018298270686553e-03 -8.5277153621503917e-04
      2.9406389556125906e-03 -2.6686068664495813e-04
      -8.7972821496495380e-04 3.0695258830353662e-03
      -3.0474982211585620e-03 -9.0080706428363223e-04
      -2.2590635788150219e-03 4.4224348624238434e-04
      9.3021379425385110e-04 2.8015080577277140e-03
      -2.6277539186091645e-03 2.7908188327798586e-03
      -1.1820690216506617e-03 6.4413685071412448e-04
      5.6896326487012509e-04 1.5253659011278862e-03
      2.3780676633445791e-03 -2.2939837626230765e-03
      -2.6631307605655338e-03 -2.2451756835201301e-03
      -2.9350194802424978e-03 -2.4300738145734118e-03
      2.5188490695459221e-03 -4.5461006945663108e-04
      1.3542958017810074e-03 -3.0024340834565815e-03
      -1.6789149845254933e-03 -2.2094967565827305e-03
      6.0182127084766786e-04 2.8747227310021569e-03
      3.7986505602610044e-05 1.7363118305507472e-03
      -2.9945643446924225e-03 -2.3117207337014735e-03
      7.4654505989619796e-04 -1.5708994652774593e-03
      1.8404372398908239e-03 -9.9683473673357870e-04
      -6.1869053207138802e-01 1.2258148709268771e-01
      -1.6292468354743050e-01 2.7362756298511920e-01
      4.1363154583829088e-02 -2.1055608263293518e-01
      1.7953476559841694e-01 -8.4215128161777578e-02
      -1.2364192023324763e-01 2.4269107231725266e-02
      -1.7408308451369242e-01 3.1916039045577653e-02
      -1.4997275991212713e-01 -1.0315894755630517e-01
      -1.5810301731592803e-02 -8.3782837525352968e-02
      3.4499407622082902e-02 3.9779658761712897e-02
      3.8706902612678819e-02 1.3380975607496148e-01
      4.9659613546264338e-02 -1.2821568284034821e-01
      -9.7824149015638490e-02 3.6088291446417725e-01
      2.2107383066822365e-02 6.6451959888644663e-02
      -2.4111386298339779e-02 1.4847016443106537e-01
      1.8818028300822640e-01 1.1229685848849325e-01
      -6.9058510574133106e-02 1.1834768306824017e-02
      1.4290112226515178e-01 -1.7143610901704023e-01
      -1.5878849614763818e-01 -1.4501606034409933e-01
      5.7869705493742978e-02 5.9796183057945040e-02
      -9.5641138902355476e-03 7.9517795988138046e-02
      5.2613955849475660e-02 4.0079183442003931e-02
      -1.0490016488716990e-01 1.3500204606414948e-01
      9.5978439720631262e-02 -1.7078646208665724e-01
      -1.1913683270672451e-01 -7.4665542034544577e-02
      1.9851421843621239e-01 -4.5911530607172950e-02
      2.2563249727445142e-01 3.2354740316346348e-01
      1.5010350647920190e-01 2.0506283292245693e-02
      -5.5587537186834249e-02 -1.0675309482022857e-02
      2.1198834064829655e-01 -2.4886287905798524e-01
      3.1128322366304695e-01 8.8511995830342263e-02
      1.3304863992728627e-01 -1.0298976802243190e-01
      4.9977698276041073e-02 1.5267300754213239e-01
      -1.7138203501374663e-01 8.9371193215132191e-03
      1.0939041020082353e-01 6.1748300336619710e-02
      -2.3357019914124835e-02 -5.8482385717099648e-02
      1.4555241001284611e-01 -7.8580166600154627e-02
      -6.1498394496816086e-02 1.4874251868511133e-02
      -1.9091877875017868e-01 9.2541733790884761e-02
      -1.4051738422409536e-02 5.9740991137238117e-02
      -4.7630297813018412e-02 -1.4207093421996819e-01
      1.6983022463308406e-02 -8.2380690352271496e-02
      -1.6588464812270651e-01 8.9299438025579131e-02
      4.0031412100671082e-01 -6.1572576130044333e-02
      2.2375742568696447e-01 -5.8944786476699963e-02
      -9.9481092899597348e-02 3.1662634974524545e-01
      2.1597222390551782e-01 1.1581948909176853e-01
      -4.3777312283176120e-02 -1.2599226885335754e-01
      3.4799203300778882e-02 1.6515246917000681e-01
      -1.8087019576536131e-01 -2.0563777827096555e-01
      -2.9388441708497224e-02 -9.1222759048657912e-02
      -3.4154358274717733e-01 2.6451661269499462e-02
      1.1228367139379120e-01 1.7032896368420178e-01
      -1.1410316920635860e-01 5.8225365976644239e-02
      -7.8972943072455615e-02 -1.5593784087296980e-01
      4.5272822857947308e-02 -1.4781226658278074e-01
      -1.5059774806597143e-01 -1.0015390833527499e-01
      -1.7007279981008169e-01 5.7054138584989623e-03
      -4.4945129229933940e-02 -1.1273716931520482e-01
      -1.4421990423073159e-02 -8.6195839740888375e-02
      -1.6278198297382609e-01 -3.0461095874800265e-01
      9.3892017878551268e-02 -4.2038286798972549e-02
      -1.9613847249450547e-01 2.2069363051350696e-01
      -2.9938661240307037e-02 8.8681698057449146e-02
      -2.4197208630291487e-02 2.9696641057794670e-01
      5.7616797883670703e-02 1.9304587559569711e-01
      -2.0245598639465834e-01 8.8282957477299612e-02
      1.5224582926728958e-01 9.8987566217558012e-02
      1.7963193695234117e-01 -2.3385925949515088e-01
      1.0644598484727646e-01 4.8785087501757741e-03
      3.9980448261737224e-03 9.1425046578028774e-02
      6.0874315737162593e-02 9.4455792675298411e-02
      -1.1069891911921180e-01 -1.0058343255384972e-01
      1.8204383760201009e-01 -2.9158641546042552e-01
      -3.4802463483055313e-01 -1.4130052079578384e-01
      -7.5115252683737449e-02 -2.0158627429300011e-01
      1.8289231978742626e-01 7.9337596711094208e-02
      3.0272685032516944e-01 -3.5205996812461525e-02
      -1.1246956477993416e-02 6.5717620785606570e-02
      1.1076112605361220e-01 -2.2319947364154241e-01
      -5.3740353009132380e-02 -5.9902927717317506e-02
      1.0984733068587654e-01 -4.1212027209464534e-02
      3.0510979398074921e-02 6.6280483056603820e-02
      -2.2849708032289695e-01 9.7910997659034701e-02
      -1.0110951496970903e-01 -9.1170009601251767e-02
      -1.4908505173531161e-01 7.6538305053820366e-02
      1.0268381045186641e-01 6.4053965206565588e-02
      2.0932281502217229e-01 -6.0820354330147465e-02
      -9.2404102547841510e-02 1.1159325032641743e-03
      -4.2661006137924097e-02 -9.6008707979254371e-02
      -3.0415699761531627e-02 -6.3400391475775392e-02
      4.3049350481906945e-02 -6.4185357395905279e-02
      -5.9204899859999147e-02 -8.7172955237397681e-02
      3.9513936554663126e-01 2.4139855593563256e-03
      -8.1873813686502844e-02 1.1132833121812345e-01
      2.0714523971852448e-02 2.2087541106601555e-01
      3.7282254751945676e-01 1.1307799882704056e-01
      7.1057773252294648e-02 -1.3893000990526200e-01
      2.0182640013216033e-01 -8.3749870373467941e-02
      -1.4326279691149432e-01 6.4930731637308711e-02
      -4.0132319749619026e-02 -1.7131628816856734e-01
      -1.6453959522226752e-01 -1.5491030535173289e-01
      6.7528996895387314e-02 3.1006768407605129e-01
      -7.3660656708023534e-02 -1.5091178736522320e-01
      -3.3651049608382763e-02 -1.8498066890072468e-01
      3.6890317520193028e-01 -2.4812193798236137e-01
      -1.7772880034536719e-02 1.8146653540784874e-01
      -4.3324586792298211e-02 -4.6850530670430567e-02
      -1.9475788057164284e-01 6.3259686228710435e-02
      -1.8803696350622609e-02 5.1520332285671190e-02
      -7.6127039223377185e-02 -1.0084425811319728e-01
      -8.6670180251414944e-02 -5.4090833570793875e-02
      6.9430884200290435e-02 1.6560567233249537e-01
      -2.4007059614016831e-02 1.0456127514756647e-01
      1.1626590955321141e-01 -1.5863967235633747e-01
      1.8428839210302311e-01 1.5916429324167242e-01
      -2.9884346004291545e-01 1.3443070424591616e-01
      -9.2265072129619943e-02 -2.2671044598045467e-03
      1.6780006328804284e-01 -6.7061604299288279e-03
      5.2886563589847699e-03 -2.0334795968739081e-01
      -1.3193191344830354e-01 6.7830140993946061e-02
      7.0055003366638335e-02 -6.5940727006155400e-02
      -3.7875679703612808e-01 4.3230991783592826e-03
      7.7819681300283203e-02 -2.7250873442207096e-01
      -3.3811602574383988e-02 -2.3727714668569336e-01
      2.5803993857387519e-02 -3.2808474969542273e-01
      -8.8151637987862966e-03 -1.6362967292360389e-01
      1.7175126600534074e-01 -2.7362983834839107e-03
      -2.4476268377594637e-01 -8.2349283758087588e-02
      -8.4860350863207215e-02 -2.9368663132052153e-01
      -3.1666355262533648e-02 -2.0383537220796319e-01
      1.6955573189897807e-01 -1.7447400392070725e-02
      2.9557266653470952e-03 5.8463229171931287e-02
      -2.0712541489906214e-01 1.4424344401242659e-01
      -2.3245236339201697e-01 -6.3966619041593342e-02
      9.1975762650796780e-02 -1.0517217817577433e-01
      -6.0291933890747702e-03 5.6307569142672272e-02
      6.1838654047652666e-02 3.5474188452921759e-02
      1.0753776129431664e-01 -1.1840527200987422e-01
      -3.7521646143975421e-02 -2.1164794828523983e-01
      5.4801267017770557e-02 2.3490369100512901e-03
      1.4321475585117868e-01 4.0951833101257842e-02
      -1.0179169849296110e-01 -5.9447658522614834e-02
      6.3053706216166155e-02 -2.5369236654444783e-02
      -5.0313136513458964e-02 8.4971668636764745e-03
      2.1304091811997697e-01 9.6050879046040011e-03
      -2.3875241903667746e-01 -1.9213112641311303e-01
      -5.8915679904345132e-02 -8.9807670532354444e-02
      -6.7073931941290910e-02 9.9370087481247107e-02
      -1.1706113479014006e-01 4.1712686893990873e-02
      1.1347164020719311e-01 -1.3582698195623855e-02
      3.8414522408068746e-01 1.0048571993594692e-01
      3.6213364680668125e-01 1.5265230733951565e-01
      -8.7693177747319578e-02 -5.5931077670454576e-02
      -2.0361114438645009e-01 -2.1162714999543725e-01
      5.2328221090394891e-03 -2.0694825908904566e-01
      1.2432172757665641e-01 2.9733946329964539e-01
      -3.2204642203306549e-01 -1.3791364298437861e-01
      -3.3063319725541024e-01 1.7058357840094929e-01
      8.9687084631903710e-02 6.6871035416188940e-02
      -1.2334566138470647e-01 6.8742425865332524e-02
      -1.3945012626764042e-01 2.2836121068108832e-02
      2.8923888122705804e-01 2.9147261082429335e-02
      -1.5416259225148887e-01 1.4852128465606659e-01
      -4.1961912380686840e-02 -1.3443835617043917e-01
      -7.9320873510403761e-02 -6.9490905149354756e-02
      -1.5593107877758342e-01 -1.1811359817012197e-01
      1.2358901897557643e-01 1.0824830650004970e-01
      -4.8103290407168091e-02 9.4023312701090545e-02
      1.2546467826719715e-01 -2.7001329017140183e-02
      -5.3894411953247193e-02 6.5724435719913737e-02
      -1.0435133084928203e-01 -2.6942297521370655e-02
      -3.4375538235133674e-01 1.9461631063136273e-01
      1.8880415287860018e-02 -1.6902188042620853e-01
      8.2939283729581939e-02 -1.8831569239246698e-01
      -2.4525119829251683e-02 -1.8885236319476082e-03
      -9.0836028168072069e-02 3.5819887123508844e-02
      -1.7934537994994289e-02 1.1946687551902879e-01
      -1.4866434454100402e-01 7.6322348400410911e-02
      6.2718274141459612e-02 -2.1276188235005336e-01
      6.1528127654081201e-02 2.8023918209641674e-02
      1.7410252702250495e-01 1.3098064950384413e-02
      -1.2081807790663732e-01 -4.7342205466827207e-02
      -2.3534061995860742e-01 -6.1535732473758438e-02
      -1.2405121072161326e-01 -2.3597538212824659e-01
      1.2099878855176114e-02 -8.1721685864479213e-02
      7.5439672200664595e-02 -3.5632279997715892e-02
      -4.9930081884972631e-03 -1.7293950929996194e-02
      5.5276632770736966e-02 -3.9659438226127047e-01
      1.3689753788510431e-01 -2.0911472083056444e-02
      -1.0559914790072307e-01 -2.0269160667339417e-01
      6.2896312000561658e-02 -1.7863009436556329e-01
      -1.3690375875178307e-01 1.9856627262799725e-02
      1.3817995099895927e-01 -1.9241736897259229e-01
      1.0291763335311709e-01 8.1540446017336413e-02
      -2.2516353486808197e-02 4.9540825756676864e-02
      -1.4552161881412015e-01 -1.0489832243516389e-01
      -3.4626724718394286e-01 6.9444004286715377e-02
      1.3982441615305086e-01 -5.0547554788689907e-02
      4.3914964169707950e-02 3.1183066498108053e-01
      1.5952458331860522e-01 5.3976576525638864e-02
      6.7612859448552121e-01 -4.6380093128211605e-02
      1.5940836740022271e-01 -1.5431514630808046e-01
      -6.8418411619031311e-02 1.0362653161236046e-01
      -3.2421478520708172e-05 -4.6223090202136378e-02
      3.1284285533747909e-02 -1.1961171749561733e-01
      -4.8531838910601248e-02 1.3115734809945479e-02
      -3.2923985551120644e-01 1.5551009719825609e-01
      -2.8421321737765232e-01 8.1438251695057709e-02
      9.3928535387617113e-02 -4.6424712984711826e-02
      2.3047229092555608e-02 -4.0699842270368623e-02
      1.6541842798900069e-01 4.4328396360034271e-03
      2.9245046607320888e-02 8.6520383901066075e-02
      -2.0383961091999060e-02 -1.8186506094905474e-02
      1.2239635027170211e-01 2.1013718305759868e-01
      1.7733122730883830e-02 -9.7587656043839233e-02
      -4.6120425721090923e-02 4.7653756329651346e-02
      7.9074978833425430e-02 1.8556708508631173e-01
      8.7473321757999545e-02 -2.2434198068693131e-01
      2.1119459463888596e-01 -1.8930307223780346e-01
      -1.7813608724424373e-01 -3.7257666662208311e-02
      5.0931418210034544e-02 -9.8448295797652366e-02
      3.2721343333595693e-02 -1.2825167624645807e-02
      2.5333298304816665e-01 3.8293395415725427e-02
      -2.4859060346250815e-02 -3.4833257123565366e-02
      -1.3267902402236173e-03 8.6302702228562081e-02
      -1.4915673309456598e-02 -1.6680853546680991e-02
      1.4936123039890395e-01 2.1129646314384637e-01
      -1.7610876456201607e-01 -1.1172205768115211e-01
      1.2094185918042800e-01 -2.6984782691246140e-01
      -2.2628712782825033e-02 -1.2556942207510366e-01
      6.5250389241255230e-02 -1.7986652317431770e-01
      3.1604153645215976e-03 -7.5173914274521941e-02
      -7.2205668262338325e-03 4.6988654355966004e-02
      -4.3849158588661084e-02 2.5254658048213646e-01
      -3.6598747112610895e-03 1.6039259464443539e-02
      5.2336658658302206e-02 1.8603476711969495e-02
      -8.1710016816251646e-02 1.2222074696241716e-01
      1.4588301843884741e-02 -5.8208009543590108e-02
      1.5176776668750391e-01 1.0839619135752677e-01
      1.0674699126403539e-01 -6.1950938113024899e-02
      -5.2980662235284200e-02 -2.7549397555889652e-03
      5.4288174187013503e-02 -7.1304482543190106e-02
      -4.7015426729704922e-03 -4.0094434897813072e-02
      -1.8244997913438882e-01 8.4051580400369086e-02
      1.1443416615535648e-01 -7.6053509278431394e-02
      -4.7673571784269446e-02 -1.8032880513721272e-02
      -3.6586230845122109e-02 -1.2900637082235386e-01
      1.8966711134905837e-02 1.0541876599015917e-01
      -1.3534949936620666e-01 1.4013218907344238e-01
      1.0753426941224946e-01 1.5556541265992363e-01
      4.2593118629549465e-01 -1.2741950187937043e-01
      1.1400318901991648e-01 -1.5425380929915952e-01
      -4.2842772668092145e-02 1.2791962910343851e-01
      -4.5052706448060545e-02 -9.2666775477900087e-02
      -7.6624452606712898e-02 -1.4652320404026389e-01
      -2.7235935895511471e-01 -1.1548163955796725e-01
      -5.4706371072283912e-02 7.1523221810821352e-02
      -1.6809419293156627e-01 1.4423187260257270e-01
      1.7295689929350014e-01 4.7442809696337927e-02
      -7.7182532772068393e-02 8.9030247252693304e-02
      -2.0995570798260377e-01 2.4271699697078536e-01
      2.3477360647048284e-01 1.4619373094582860e-01
      2.1845511739808806e-02 -1.0807129542283528e-01
      6.4339364804800944e-02 1.9226336606386443e-01
      2.3005384186795511e-01 8.0293614096616964e-02
      2.9504291158206591e-03 -2.9901136660201038e-02
      -6.4777428436722614e-02 -9.8308314252892409e-02
      5.5768175286961812e-02 -1.5790645745019516e-01
      4.0698320899617439e-02 6.5124027910156090e-02
      -2.4657309856221840e-01 -2.3315584274538484e-01
